{"learner":{"attributes":{"scikit_learn":"{\"_estimator_type\": \"regressor\"}"},"feature_names":[],"feature_types":[],"gradient_booster":{"model":{"cats":{"enc":[],"feature_segments":[],"sorted_idx":[]},"gbtree_model_param":{"num_parallel_tree":"1","num_trees":"300"},"iteration_indptr":[0,1,2,3,4,5,6,7,8,9,10,11,12,13,14,15,16,17,18,19,20,21,22,23,24,25,26,27,28,29,30,31,32,33,34,35,36,37,38,39,40,41,42,43,44,45,46,47,48,49,50,51,52,53,54,55,56,57,58,59,60,61,62,63,64,65,66,67,68,69,70,71,72,73,74,75,76,77,78,79,80,81,82,83,84,85,86,87,88,89,90,91,92,93,94,95,96,97,98,99,100,101,102,103,104,105,106,107,108,109,110,111,112,113,114,115,116,117,118,119,120,121,122,123,124,125,126,127,128,129,130,131,132,133,134,135,136,137,138,139,140,141,142,143,144,145,146,147,148,149,150,151,152,153,154,155,156,157,158,159,160,161,162,163,164,165,166,167,168,169,170,171,172,173,174,175,176,177,178,179,180,181,182,183,184,185,186,187,188,189,190,191,192,193,194,195,196,197,198,199,200,201,202,203,204,205,206,207,208,209,210,211,212,213,214,215,216,217,218,219,220,221,222,223,224,225,226,227,228,229,230,231,232,233,234,235,236,237,238,239,240,241,242,243,244,245,246,247,248,249,250,251,252,253,254,255,256,257,258,259,260,261,262,263,264,265,266,267,268,269,270,271,272,273,274,275,276,277,278,279,280,281,282,283,284,285,286,287,288,289,290,291,292,293,294,295,296,297,298,299,300],"tree_info":[0,0,0,0,0,0,0,0,0,0,0,0,0,0,0,0,0,0,0,0,0,0,0,0,0,0,0,0,0,0,0,0,0,0,0,0,0,0,0,0,0,0,0,0,0,0,0,0,0,0,0,0,0,0,0,0,0,0,0,0,0,0,0,0,0,0,0,0,0,0,0,0,0,0,0,0,0,0,0,0,0,0,0,0,0,0,0,0,0,0,0,0,0,0,0,0,0,0,0,0,0,0,0,0,0,0,0,0,0,0,0,0,0,0,0,0,0,0,0,0,0,0,0,0,0,0,0,0,0,0,0,0,0,0,0,0,0,0,0,0,0,0,0,0,0,0,0,0,0,0,0,0,0,0,0,0,0,0,0,0,0,0,0,0,0,0,0,0,0,0,0,0,0,0,0,0,0,0,0,0,0,0,0,0,0,0,0,0,0,0,0,0,0,0,0,0,0,0,0,0,0,0,0,0,0,0,0,0,0,0,0,0,0,0,0,0,0,0,0,0,0,0,0,0,0,0,0,0,0,0,0,0,0,0,0,0,0,0,0,0,0,0,0,0,0,0,0,0,0,0,0,0,0,0,0,0,0,0,0,0,0,0,0,0,0,0,0,0,0,0,0,0,0,0,0,0,0,0,0,0,0,0,0,0,0,0,0,0,0,0,0,0,0,0,0,0,0,0,0,0],"trees":[{"base_weights":[9.805629E0,-4.4035147E2,1.7378453E3,-8.194323E2,-3.0839743E2,1.4826865E3,1.128705E2,-4.421766E1,-7.599412E2,-3.6245123E2,6.654214E1,6.5064804E1,8.231871E1,-3.8321774E1,-2.1045916E1,-4.8304834E2,-2.982392E2,2.0648264E1,1.16879005E2,-2.4816774E1,-1.9790648E1,-3.2970377E2,-2.2065555E2,4.061395E1,-6.9265564E1,1.1911054E2,3.5570985E-1,-1.7490923E1,-1.4696731E1,-1.2536992E1,-9.645303E0,5.2791876E-1,2.714397E0,-4.210069E0,-1.2905747E0,4.754677E0,6.557693E0],"categories":[],"categories_nodes":[],"categories_segments":[],"categories_sizes":[],"default_left":[0,0,0,0,0,0,0,0,0,0,0,0,0,0,0,0,0,0,0,0,0,0,0,0,0,0,0,0,0,0,0,0,0,0,0,0,0],"id":0,"left_children":[1,3,5,7,9,11,-1,-1,13,15,17,-1,-1,-1,-1,19,21,23,25,-1,-1,27,29,31,33,35,-1,-1,-1,-1,-1,-1,-1,-1,-1,-1,-1],"loss_changes":[1.0275792E9,5.216955E7,3.2844992E7,3.70752E5,1.581204E7,3.38016E6,0E0,0E0,3.256E3,5.129448E6,2.2629188E5,0E0,0E0,0E0,0E0,7.5936E4,1.018436E6,9.7958266E4,1.06650625E4,0E0,0E0,1.24536E5,6.18275E4,1.7509906E4,4.3168555E3,8.333125E2,0E0,0E0,0E0,0E0,0E0,0E0,0E0,0E0,0E0,0E0,0E0],"parents":[2147483647,0,0,1,1,2,2,3,3,4,4,5,5,8,8,9,9,10,10,15,15,16,16,17,17,18,18,21,21,22,22,23,23,24,24,25,25],"right_children":[2,4,6,8,10,12,-1,-1,14,16,18,-1,-1,-1,-1,20,22,24,26,-1,-1,28,30,32,34,36,-1,-1,-1,-1,-1,-1,-1,-1,-1,-1,-1],"split_conditions":[1.3007907E0,-5.7174224E-1,2.3254087E0,-9.071898E-1,3.5398412E-2,1.8769147E0,1.128705E2,-4.421766E1,-5.650869E-1,-4.3376383E-1,1.0639656E-1,6.5064804E1,8.231871E1,-3.8321774E1,-2.1045916E1,6.757481E-1,-2.9807594E-1,-5.3282622E-2,8.528839E-2,-2.4816774E1,-1.9790648E1,-3.4859788E-1,5.276227E-1,-1.7540689E-1,5.9731405E-2,-1.5494555E-1,3.5570985E-1,-1.7490923E1,-1.4696731E1,-1.2536992E1,-9.645303E0,5.2791876E-1,2.714397E0,-4.210069E0,-1.2905747E0,4.754677E0,6.557693E0],"split_indices":[3,5,3,4,3,4,0,0,3,5,6,0,0,0,0,6,5,4,3,0,0,5,6,4,3,4,0,0,0,0,0,0,0,0,0,0,0],"split_type":[0,0,0,0,0,0,0,0,0,0,0,0,0,0,0,0,0,0,0,0,0,0,0,0,0,0,0,0,0,0,0,0,0,0,0,0,0],"sum_hessian":[1.319E3,1.047E3,2.72E2,2.69E2,7.78E2,1.85E2,8.7E1,1.22E2,1.47E2,6.8E2,9.8E1,9.2E1,9.3E1,1.43E2,4E0,2.34E2,4.46E2,5.2E1,4.6E1,1.99E2,3.5E1,3.15E2,1.31E2,4.3E1,9E0,4.5E1,1E0,1.96E2,1.19E2,5.9E1,7.2E1,1.4E1,2.9E1,6E0,3E0,1.8E1,2.7E1],"tree_param":{"num_deleted":"0","num_feature":"7","num_nodes":"37","size_leaf_vector":"1"}},{"base_weights":[1.432384E1,-4.136742E2,1.671989E3,-7.770295E2,-2.9294513E2,1.3997091E3,1.061372E2,-4.2038136E1,-3.610687E1,-3.496588E2,1.5003692E1,6.257605E1,7.860293E1,-4.6244763E2,-2.889205E2,-1.3437878E2,6.728686E1,-2.41407E1,-2.0793058E1,-3.2373764E2,-2.2321185E2,-7.0999827E0,-3.8209138E0,3.1321846E1,1.07444336E2,-1.720256E1,-1.5051743E1,-1.2251424E1,-9.512439E0,-1.621182E-1,2.4349658E0,5.61041E0,2.392229E0],"categories":[],"categories_nodes":[],"categories_segments":[],"categories_sizes":[],"default_left":[0,0,0,0,0,0,0,0,0,0,0,0,0,0,0,0,0,0,0,0,0,0,0,0,0,0,0,0,0,0,0,0,0],"id":1,"left_children":[1,3,5,7,9,11,-1,-1,-1,13,15,-1,-1,17,19,21,23,-1,-1,25,27,-1,-1,29,31,-1,-1,-1,-1,-1,-1,-1,-1],"loss_changes":[9.542293E8,4.666677E7,3.090272E7,3.23456E5,1.4047032E7,2.502016E6,0E0,0E0,0E0,4.517944E6,9.931258E5,0E0,0E0,2.3132E4,9.43516E5,3.725E3,1.3239547E5,0E0,0E0,2.9246E4,6.62885E4,0E0,0E0,3.079046E4,7.1241875E3,0E0,0E0,0E0,0E0,0E0,0E0,0E0,0E0],"parents":[2147483647,0,0,1,1,2,2,3,3,4,4,5,5,9,9,10,10,13,13,14,14,15,15,16,16,19,19,20,20,23,23,24,24],"right_children":[2,4,6,8,10,12,-1,-1,-1,14,16,-1,-1,18,20,22,24,-1,-1,26,28,-1,-1,30,32,-1,-1,-1,-1,-1,-1,-1,-1],"split_conditions":[1.2124236E0,-6.114323E-1,1.9653451E0,-8.8458395E-1,-1.8474911E-1,1.6095297E0,1.061372E2,-4.2038136E1,-3.610687E1,-4.336937E-1,-4.9193513E-2,6.257605E1,7.860293E1,-5.112817E-1,-3.085968E-1,3.5398412E-2,8.243496E-2,-2.41407E1,-2.0793058E1,-3.6353436E-1,-2.4699058E-1,-7.0999827E0,-3.8209138E0,2.486712E-2,-2.771469E-1,-1.720256E1,-1.5051743E1,-1.2251424E1,-9.512439E0,-1.621182E-1,2.4349658E0,5.61041E0,2.392229E0],"split_indices":[0,0,0,0,0,0,0,0,0,0,0,0,0,0,0,3,0,0,0,0,0,0,0,0,1,0,0,0,0,0,0,0,0],"split_type":[0,0,0,0,0,0,0,0,0,0,0,0,0,0,0,0,0,0,0,0,0,0,0,0,0,0,0,0,0,0,0,0,0],"sum_hessian":[1.343E3,1.068E3,2.75E2,2.65E2,8.03E2,1.74E2,1.01E2,1.16E2,1.49E2,6.78E2,1.25E2,9.8E1,7.6E1,2.35E2,4.43E2,3.2E1,9.3E1,1.57E2,7.8E1,2.87E2,1.56E2,2.7E1,5E0,5E1,4.3E1,1.44E2,1.43E2,9E1,6.6E1,1.7E1,3.3E1,3.9E1,4E0],"tree_param":{"num_deleted":"0","num_feature":"7","num_nodes":"33","size_leaf_vector":"1"}},{"base_weights":[-8.100066E0,-3.952513E2,1.5876416E3,-7.386153E2,-2.7875687E2,1.3443467E3,1.0163613E2,-3.9971222E1,-3.4374706E1,-3.391875E2,-1.4526789E1,5.9398403E1,7.556438E1,-4.3876233E2,-2.8272897E2,-1.3533063E2,7.48684E1,-2.3134056E1,-2.0005774E1,-3.0872394E2,-2.2088988E2,-7.477286E0,-5.195247E1,3.9589016E1,1.0480172E2,-1.6329296E1,-1.4234622E1,-1.1792098E1,-9.6274395E0,-9.936804E-1,-3.372208E0,6.16847E-1,2.3323777E0,5.5131125E0,2.892348E0],"categories":[],"categories_nodes":[],"categories_segments":[],"categories_sizes":[],"default_left":[0,0,0,0,0,0,0,0,0,0,0,0,0,0,0,0,0,0,0,0,0,0,0,0,0,0,0,0,0,0,0,0,0,0,0],"id":2,"left_children":[1,3,5,7,9,11,-1,-1,-1,13,15,-1,-1,17,19,21,23,-1,-1,25,27,-1,29,31,33,-1,-1,-1,-1,-1,-1,-1,-1,-1,-1],"loss_changes":[8.3217734E8,4.3154096E7,2.574656E7,3.0216E5,1.2944796E7,2.720992E6,0E0,0E0,0E0,3.586368E6,1.6516229E6,0E0,0E0,3.3956E4,6.13388E5,6.92705E4,8.878159E4,0E0,0E0,3.408E4,9.2535E3,0E0,4.1261543E3,7.503625E3,5.672375E3,0E0,0E0,0E0,0E0,0E0,0E0,0E0,0E0,0E0,0E0],"parents":[2147483647,0,0,1,1,2,2,3,3,4,4,5,5,9,9,10,10,13,13,14,14,15,15,16,16,19,19,20,20,22,22,23,23,24,24],"right_children":[2,4,6,8,10,12,-1,-1,-1,14,16,-1,-1,18,20,22,24,-1,-1,26,28,-1,30,32,34,-1,-1,-1,-1,-1,-1,-1,-1,-1,-1],"split_conditions":[1.2124236E0,-6.114323E-1,2.3254087E0,-8.8458395E-1,-2.1793017E-1,1.6095297E0,1.0163613E2,-3.9971222E1,-3.4374706E1,-4.336937E-1,-3.5101555E-2,5.9398403E1,7.556438E1,-5.199617E-1,-3.085968E-1,4.0523443E-2,8.243496E-2,-2.3134056E1,-2.0005774E1,-3.6084187E-1,-2.555588E-1,-7.477286E0,-1.7899299E-1,2.486712E-2,8.528839E-2,-1.6329296E1,-1.4234622E1,-1.1792098E1,-9.6274395E0,-9.936804E-1,-3.372208E0,6.16847E-1,2.3323777E0,5.5131125E0,2.892348E0],"split_indices":[0,0,3,0,0,0,0,0,0,0,0,0,0,0,0,3,0,0,0,0,0,0,4,0,3,0,0,0,0,0,0,0,0,0,0],"split_type":[0,0,0,0,0,0,0,0,0,0,0,0,0,0,0,0,0,0,0,0,0,0,0,0,0,0,0,0,0,0,0,0,0,0,0],"sum_hessian":[1.345E3,1.083E3,2.62E2,2.73E2,8.1E2,1.72E2,9E1,1.18E2,1.55E2,6.59E2,1.51E2,9.3E1,7.9E1,2.36E2,4.23E2,6.4E1,8.7E1,1.39E2,9.7E1,2.95E2,1.28E2,5.4E1,1E1,4.1E1,4.6E1,1.62E2,1.33E2,7.9E1,4.9E1,4E0,6E0,9E0,3.2E1,4E1,6E0],"tree_param":{"num_deleted":"0","num_feature":"7","num_nodes":"35","size_leaf_vector":"1"}},{"base_weights":[-7.0247215E-1,-3.7919287E2,1.5033759E3,-7.081196E2,-2.654776E2,1.277474E3,9.6436455E1,-3.808217E1,-3.299157E1,-3.157989E2,3.3945194E1,5.6433296E1,7.189621E1,-4.1553384E2,-2.5781262E2,-9.482204E1,7.076745E1,-2.1801634E1,-1.8435936E1,-2.8889856E2,-1.9429152E2,-5.4190593E0,-3.156134E1,3.343276E1,1.0132437E2,-1.544341E1,-1.3423369E1,-1.0783192E1,-8.23346E0,5.717285E-1,-2.122372E0,3.1418344E-1,2.086024E0,5.3488355E0,2.6064E0],"categories":[],"categories_nodes":[],"categories_segments":[],"categories_sizes":[],"default_left":[0,0,0,0,0,0,0,0,0,0,0,0,0,0,0,0,0,0,0,0,0,0,0,0,0,0,0,0,0,0,0,0,0,0,0],"id":3,"left_children":[1,3,5,7,9,11,-1,-1,-1,13,15,-1,-1,17,19,21,23,-1,-1,25,27,-1,29,31,33,-1,-1,-1,-1,-1,-1,-1,-1,-1,-1],"loss_changes":[7.588499E8,3.9647264E7,2.3287744E7,2.0304E5,1.1959116E7,2.62704E6,0E0,0E0,0E0,3.819704E6,5.5198275E5,0E0,0E0,7.722E4,7.96902E5,1.8881125E4,9.928744E4,0E0,0E0,3.4584E4,5.6286E4,0E0,3.2937139E3,9.188016E3,8.0491562E3,0E0,0E0,0E0,0E0,0E0,0E0,0E0,0E0,0E0,0E0],"parents":[2147483647,0,0,1,1,2,2,3,3,4,4,5,5,9,9,10,10,13,13,14,14,15,15,16,16,19,19,20,20,22,22,23,23,24,24],"right_children":[2,4,6,8,10,12,-1,-1,-1,14,16,-1,-1,18,20,22,24,-1,-1,26,28,-1,30,32,34,-1,-1,-1,-1,-1,-1,-1,-1,-1,-1],"split_conditions":[1.2124236E0,-8.018207E-1,2.3254087E0,-8.9152956E-1,-1.699297E-1,1.6095297E0,9.6436455E1,-3.808217E1,-3.299157E1,-4.2167184E-1,-3.5101555E-2,5.6433296E1,7.189621E1,-5.0262034E-1,-2.9987574E-1,-4.9193513E-2,8.243496E-2,-2.1801634E1,-1.8435936E1,-3.6353436E-1,-2.3563556E-1,-5.4190593E0,-8.685307E-1,2.486712E-2,8.528839E-2,-1.544341E1,-1.3423369E1,-1.0783192E1,-8.23346E0,5.717285E-1,-2.122372E0,3.1418344E-1,2.086024E0,5.3488355E0,2.6064E0],"split_indices":[0,5,3,0,0,0,0,0,0,0,0,0,0,0,0,0,0,0,0,0,0,0,6,0,3,0,0,0,0,0,0,0,0,0,0],"split_type":[0,0,0,0,0,0,0,0,0,0,0,0,0,0,0,0,0,0,0,0,0,0,0,0,0,0,0,0,0,0,0,0,0,0,0],"sum_hessian":[1.331E3,1.064E3,2.67E2,2.72E2,7.92E2,1.77E2,9E1,1.22E2,1.5E2,6.78E2,1.14E2,9.6E1,8.1E1,2.47E2,4.31E2,2.5E1,8.9E1,1.66E2,8.1E1,2.87E2,1.44E2,2E1,5E0,4.1E1,4.8E1,1.38E2,1.49E2,8E1,6.4E1,1E0,4E0,1E1,3.1E1,4.2E1,6E0],"tree_param":{"num_deleted":"0","num_feature":"7","num_nodes":"35","size_leaf_vector":"1"}},{"base_weights":[6.852184E0,-3.586368E2,1.4242767E3,-6.6122144E2,-2.4896054E2,1.2107897E3,9.20085E1,-3.6121243E1,-6.125595E2,-2.96188E2,2.950229E1,5.3032845E1,6.730649E1,-3.1312561E1,-2.115431E1,-3.8202237E2,-2.3958209E2,-9.251677E1,6.7031166E1,-2.0278028E1,-1.6598799E1,-1.3635077E1,-1.879915E2,-5.270959E0,-2.9788492E1,3.274771E1,9.687626E1,-1.0587401E1,-8.170058E0,5.574341E-1,-2.0102832E0,1.9196445E-1,2.0830808E0,5.1338134E0,2.4946952E0],"categories":[],"categories_nodes":[],"categories_segments":[],"categories_sizes":[],"default_left":[0,0,0,0,0,0,0,0,0,0,0,0,0,0,0,0,0,0,0,0,0,0,0,0,0,0,0,0,0,0,0,0,0,0,0],"id":4,"left_children":[1,3,5,7,9,11,-1,-1,13,15,17,-1,-1,-1,-1,19,21,23,25,-1,-1,-1,27,-1,29,31,33,-1,-1,-1,-1,-1,-1,-1,-1],"loss_changes":[6.848589E8,3.4714256E7,2.1833472E7,3.88408E5,1.0174528E7,2.270256E6,0E0,0E0,1.55304E5,3.120096E6,5.236554E5,0E0,0E0,0E0,0E0,1.7282E5,6.33906E5,1.8712062E4,8.584531E4,0E0,0E0,0E0,5.8869E4,0E0,3.0069375E3,1.0662898E4,7.4119688E3,0E0,0E0,0E0,0E0,0E0,0E0,0E0,0E0],"parents":[2147483647,0,0,1,1,2,2,3,3,4,4,5,5,8,8,9,9,10,10,15,15,16,16,17,17,18,18,22,22,24,24,25,25,26,26],"right_children":[2,4,6,8,10,12,-1,-1,14,16,18,-1,-1,-1,-1,20,22,24,26,-1,-1,-1,28,-1,30,32,34,-1,-1,-1,-1,-1,-1,-1,-1],"split_conditions":[1.2124236E0,-5.8940315E-1,2.3254087E0,-8.8458395E-1,-1.699297E-1,1.5559165E0,9.20085E1,-3.6121243E1,-5.650869E-1,-4.074853E-1,-3.5101555E-2,5.3032845E1,6.730649E1,-3.1312561E1,-2.115431E1,-4.8856527E-1,-3.085968E-1,-4.9193513E-2,8.243496E-2,-2.0278028E1,-1.6598799E1,-1.3635077E1,-2.555588E-1,-5.270959E0,-8.685307E-1,2.486712E-2,8.528839E-2,-1.0587401E1,-8.170058E0,5.574341E-1,-2.0102832E0,1.9196445E-1,2.0830808E0,5.1338134E0,2.4946952E0],"split_indices":[0,0,3,0,0,0,0,0,3,0,0,0,0,0,0,0,0,0,0,0,0,0,0,0,6,0,3,0,0,0,0,0,0,0,0],"split_type":[0,0,0,0,0,0,0,0,0,0,0,0,0,0,0,0,0,0,0,0,0,0,0,0,0,0,0,0,0,0,0,0,0,0,0],"sum_hessian":[1.32E3,1.05E3,2.7E2,2.78E2,7.72E2,1.81E2,8.9E1,1.17E2,1.61E2,6.6E2,1.12E2,9E1,9.1E1,1.48E2,1.3E1,2.6E2,4E2,2.6E1,8.6E1,1.72E2,8.8E1,2.41E2,1.59E2,2.1E1,5E0,4.1E1,4.5E1,7.7E1,8.2E1,1E0,4E0,1E1,3.1E1,3.9E1,6E0],"tree_param":{"num_deleted":"0","num_feature":"7","num_nodes":"35","size_leaf_vector":"1"}},{"base_weights":[2.4755685E0,-3.409848E2,1.3584326E3,-6.296713E2,-2.3275302E2,1.1312354E3,8.655418E1,-3.4330338E1,-5.820888E2,-2.7784644E2,4.4907227E1,5.034681E1,6.324676E1,-2.9777567E1,-2.0432886E1,-3.489055E2,-2.1461188E2,-3.303609E1,7.0974365E1,-1.9093546E1,-1.50221405E1,-1.222707E1,-1.6461845E2,-3.9035118E0,-7.5951633E0,3.7573612E1,9.054005E1,-9.043225E0,-6.8702006E0,-1.4175123E0,6.9597167E-1,1.327578E0,2.3468099E0,3.9655883E0,6.021133E0],"categories":[],"categories_nodes":[],"categories_segments":[],"categories_sizes":[],"default_left":[0,0,0,0,0,0,0,0,0,0,0,0,0,0,0,0,0,0,0,0,0,0,0,0,0,0,0,0,0,0,0,0,0,0,0],"id":5,"left_children":[1,3,5,7,9,11,-1,-1,13,15,17,-1,-1,-1,-1,19,21,23,25,-1,-1,-1,27,-1,29,31,33,-1,-1,-1,-1,-1,-1,-1,-1],"loss_changes":[6.1986746E8,3.3035688E7,2.0816672E7,3.83272E5,9.703456E6,1.551472E6,0E0,0E0,1.39532E5,2.91772E6,2.2380647E5,0E0,0E0,0E0,0E0,3.8372E5,4.90921E5,3.1486938E4,5.018578E4,0E0,0E0,0E0,3.527775E4,0E0,8.878825E3,2.0560078E3,7.561125E3,0E0,0E0,0E0,0E0,0E0,0E0,0E0,0E0],"parents":[2147483647,0,0,1,1,2,2,3,3,4,4,5,5,8,8,9,9,10,10,15,15,16,16,17,17,18,18,22,22,24,24,25,25,26,26],"right_children":[2,4,6,8,10,12,-1,-1,14,16,18,-1,-1,-1,-1,20,22,24,26,-1,-1,-1,28,-1,30,32,34,-1,-1,-1,-1,-1,-1,-1,-1],"split_conditions":[1.2124236E0,-5.8940315E-1,1.9653451E0,-8.8458395E-1,-1.4568958E-1,1.5559165E0,8.655418E1,-3.4330338E1,-8.005104E-1,-3.8373372E-1,2.486712E-2,5.034681E1,6.324676E1,-2.9777567E1,-2.0432886E1,-4.7672707E-1,-2.8795555E-1,-4.9193513E-2,8.243496E-2,-1.9093546E1,-1.50221405E1,-1.222707E1,-2.1983705E-1,-3.9035118E0,-8.216171E-1,-4.5124468E-1,1.5367705E-1,-9.043225E0,-6.8702006E0,-1.4175123E0,6.9597167E-1,1.327578E0,2.3468099E0,3.9655883E0,6.021133E0],"split_indices":[0,0,0,0,0,0,0,0,4,0,0,0,0,0,0,0,0,0,0,0,0,0,0,0,2,1,0,0,0,0,0,0,0,0,0],"split_type":[0,0,0,0,0,0,0,0,0,0,0,0,0,0,0,0,0,0,0,0,0,0,0,0,0,0,0,0,0,0,0,0,0,0,0],"sum_hessian":[1.329E3,1.061E3,2.68E2,2.88E2,7.73E2,1.69E2,9.9E1,1.25E2,1.63E2,6.65E2,1.08E2,9.2E1,7.7E1,1.49E2,1.4E1,3.11E2,3.54E2,2.7E1,8.1E1,1.81E2,1.3E2,2.19E2,1.35E2,9E0,1.8E1,3.1E1,5E1,8.1E1,5.4E1,9E0,9E0,1.6E1,1.5E1,3.9E1,1.1E1],"tree_param":{"num_deleted":"0","num_feature":"7","num_nodes":"35","size_leaf_vector":"1"}},{"base_weights":[5.106104E0,-3.227613E2,1.2982058E3,-5.9749286E2,-2.2585971E2,1.0859319E3,8.366686E1,-3.2789364E1,-5.5341455E2,-2.7030035E2,2.4383026E1,4.849615E1,6.1479675E1,-2.8321018E1,-1.936647E1,-3.5566348E2,-2.243482E2,-8.1876045E1,6.1120644E1,-1.854525E1,-1.5915726E1,-2.4967032E2,-1.6744557E2,-9.3654915E1,-2.811206E1,2.8040457E1,8.8792465E1,-1.3366417E1,-1.154172E1,-9.19794E0,-7.0890856E0,-5.1322875E0,-3.0859337E0,5.789337E-1,-1.8328482E0,3.86144E-1,1.7500399E0,3.8962142E0,5.745165E0],"categories":[],"categories_nodes":[],"categories_segments":[],"categories_sizes":[],"default_left":[0,0,0,0,0,0,0,0,0,0,0,0,0,0,0,0,0,0,0,0,0,0,0,0,0,0,0,0,0,0,0,0,0,0,0,0,0,0,0],"id":6,"left_children":[1,3,5,7,9,11,-1,-1,13,15,17,-1,-1,-1,-1,19,21,23,25,-1,-1,27,29,31,33,35,37,-1,-1,-1,-1,-1,-1,-1,-1,-1,-1,-1,-1],"loss_changes":[5.6174906E8,2.8004432E7,1.9523872E7,3.43696E5,8.714292E6,1.70728E6,0E0,0E0,1.32696E5,2.528752E6,4.6954525E5,0E0,0E0,0E0,0E0,1.3434E4,5.84982E5,1.6998812E4,7.897981E4,0E0,0E0,3.774E4,3.197775E4,8.431875E2,2.7985127E3,5.669215E3,4.6675312E3,0E0,0E0,0E0,0E0,0E0,0E0,0E0,0E0,0E0,0E0,0E0,0E0],"parents":[2147483647,0,0,1,1,2,2,3,3,4,4,5,5,8,8,9,9,10,10,15,15,16,16,17,17,18,18,21,21,22,22,23,23,24,24,25,25,26,26],"right_children":[2,4,6,8,10,12,-1,-1,14,16,18,-1,-1,-1,-1,20,22,24,26,-1,-1,28,30,32,34,36,38,-1,-1,-1,-1,-1,-1,-1,-1,-1,-1,-1,-1],"split_conditions":[1.2124236E0,-5.8940315E-1,2.1242146E0,-8.9152956E-1,-1.7829207E-1,1.6095297E0,8.366686E1,-3.2789364E1,-6.4838606E-1,-4.336937E-1,-3.5101555E-2,4.849615E1,6.1479675E1,-2.8321018E1,-1.936647E1,-5.0262034E-1,-2.9987574E-1,-4.9193513E-2,8.243496E-2,-1.854525E1,-1.5915726E1,-3.6353436E-1,-2.3563556E-1,-6.119398E-2,-8.685307E-1,2.486712E-2,1.5367705E-1,-1.3366417E1,-1.154172E1,-9.19794E0,-7.0890856E0,-5.1322875E0,-3.0859337E0,5.789337E-1,-1.8328482E0,3.86144E-1,1.7500399E0,3.8962142E0,5.745165E0],"split_indices":[0,0,0,0,0,0,0,0,4,0,0,0,0,0,0,0,0,0,0,0,0,0,0,4,6,0,0,0,0,0,0,0,0,0,0,0,0,0,0],"split_type":[0,0,0,0,0,0,0,0,0,0,0,0,0,0,0,0,0,0,0,0,0,0,0,0,0,0,0,0,0,0,0,0,0,0,0,0,0,0,0],"sum_hessian":[1.323E3,1.056E3,2.67E2,2.74E2,7.82E2,1.73E2,9.4E1,1.12E2,1.62E2,6.64E2,1.18E2,1E2,7.3E1,1.48E2,1.4E1,2.3E2,4.34E2,3E1,8.8E1,1.57E2,7.3E1,2.98E2,1.36E2,2.4E1,6E0,4.1E1,4.7E1,1.47E2,1.51E2,7.9E1,5.7E1,1.7E1,7E0,1E0,5E0,1.1E1,3E1,3.6E1,1.1E1],"tree_param":{"num_deleted":"0","num_feature":"7","num_nodes":"39","size_leaf_vector":"1"}},{"base_weights":[1.4713164E1,-3.0501587E2,1.2257202E3,-5.693049E2,-2.0994196E2,1.0353572E3,7.79727E1,-3.1172735E1,-5.272762E2,-2.5510732E2,1.6457466E1,4.505232E1,5.717466E1,-2.691983E1,-1.8523294E1,-3.3619894E2,-2.1195781E2,-8.68339E1,5.693963E1,-1.7625463E1,-1.50347395E1,-2.3789252E2,-1.638126E2,-4.8784766E0,-2.6885569E1,2.7684584E1,8.213037E1,-1.2505351E1,-1.0913812E1,-9.003249E0,-6.964461E0,5.6445926E-1,-1.756478E0,2.0898859E-1,1.8052565E0,3.5780454E0,5.4818473E0],"categories":[],"categories_nodes":[],"categories_segments":[],"categories_sizes":[],"default_left":[0,0,0,0,0,0,0,0,0,0,0,0,0,0,0,0,0,0,0,0,0,0,0,0,0,0,0,0,0,0,0,0,0,0,0,0,0],"id":7,"left_children":[1,3,5,7,9,11,-1,-1,13,15,17,-1,-1,-1,-1,19,21,23,25,-1,-1,27,29,-1,31,33,35,-1,-1,-1,-1,-1,-1,-1,-1,-1,-1],"loss_changes":[5.1534205E8,2.63392E7,1.6046912E7,3.0396E5,7.93912E6,1.583936E6,0E0,0E0,8.4776E4,2.192632E6,5.485338E5,0E0,0E0,0E0,0E0,2.3136E4,4.91698E5,2.1189344E4,6.700016E4,0E0,0E0,1.106E4,3.550025E4,0E0,2.5995703E3,8.755641E3,6.6907812E3,0E0,0E0,0E0,0E0,0E0,0E0,0E0,0E0,0E0,0E0],"parents":[2147483647,0,0,1,1,2,2,3,3,4,4,5,5,8,8,9,9,10,10,15,15,16,16,17,17,18,18,21,21,22,22,24,24,25,25,26,26],"right_children":[2,4,6,8,10,12,-1,-1,14,16,18,-1,-1,-1,-1,20,22,24,26,-1,-1,28,30,-1,32,34,36,-1,-1,-1,-1,-1,-1,-1,-1,-1,-1],"split_conditions":[1.2124236E0,-5.8940315E-1,1.9653451E0,-8.9152956E-1,-1.8474911E-1,1.5236874E0,7.79727E1,-3.1172735E1,-6.4838606E-1,-4.2167184E-1,-3.5101555E-2,4.505232E1,5.717466E1,-2.691983E1,-1.8523294E1,-5.0262034E-1,-3.085968E-1,-4.9193513E-2,8.243496E-2,-1.7625463E1,-1.50347395E1,-3.578327E-1,-2.4699058E-1,-4.8784766E0,-8.685307E-1,2.486712E-2,1.5367705E-1,-1.2505351E1,-1.0913812E1,-9.003249E0,-6.964461E0,5.6445926E-1,-1.756478E0,2.0898859E-1,1.8052565E0,3.5780454E0,5.4818473E0],"split_indices":[0,0,0,0,0,0,0,0,4,0,0,0,0,0,0,0,0,0,0,0,0,0,0,0,6,0,0,0,0,0,0,0,0,0,0,0,0],"split_type":[0,0,0,0,0,0,0,0,0,0,0,0,0,0,0,0,0,0,0,0,0,0,0,0,0,0,0,0,0,0,0,0,0,0,0,0,0],"sum_hessian":[1.329E3,1.052E3,2.77E2,2.77E2,7.75E2,1.79E2,9.8E1,1.15E2,1.62E2,6.46E2,1.29E2,8.4E1,9.5E1,1.49E2,1.3E1,2.22E2,4.24E2,3.6E1,9.3E1,1.46E2,7.6E1,2.73E2,1.51E2,3E1,6E0,4.4E1,4.9E1,1.61E2,1.12E2,8.7E1,6.4E1,1E0,5E0,1.2E1,3.2E1,3.8E1,1.1E1],"tree_param":{"num_deleted":"0","num_feature":"7","num_nodes":"37","size_leaf_vector":"1"}},{"base_weights":[-7.129524E0,-2.9098782E2,1.1575835E3,-5.397727E2,-2.0395378E2,9.8781476E2,7.497404E1,-2.8480543E1,-4.7429236E2,-2.4293892E2,2.0532305E1,4.3694164E1,5.5673126E1,-2.4496902E1,-1.7550518E1,-3.2147763E2,-2.0234724E2,-8.119244E1,5.72898E1,-1.6971916E1,-1.4758849E1,-2.2812482E2,-1.575664E2,-8.874677E1,-3.3665833E1,2.8896412E1,7.929889E1,-1.2329441E1,-1.0778491E1,-8.80815E0,-6.719294E0,-1.8060263E0,-4.575603E0,-1.8381017E0,-4.5462036E-1,1.6141617E0,-1.181773E0,3.532868E0,5.1364036E0],"categories":[],"categories_nodes":[],"categories_segments":[],"categories_sizes":[],"default_left":[0,0,0,0,0,0,0,0,0,0,0,0,0,0,0,0,0,0,0,0,0,0,0,0,0,0,0,0,0,0,0,0,0,0,0,0,0,0,0],"id":8,"left_children":[1,3,5,7,9,11,-1,-1,13,15,17,-1,-1,-1,-1,19,21,23,25,-1,-1,27,29,31,33,35,37,-1,-1,-1,-1,-1,-1,-1,-1,-1,-1,-1,-1],"loss_changes":[4.420364E8,2.3166624E7,1.3726208E7,2.73E5,6.988782E6,1.575072E6,0E0,0E0,7.408E3,2.102804E6,4.496099E5,0E0,0E0,0E0,0E0,8.452E3,4.84662E5,8.501281E3,5.2700875E4,0E0,0E0,1.2679E4,4.8747E4,6.2375E2,1.2225098E2,7.879672E3,2.66225E3,0E0,0E0,0E0,0E0,0E0,0E0,0E0,0E0,0E0,0E0,0E0,0E0],"parents":[2147483647,0,0,1,1,2,2,3,3,4,4,5,5,8,8,9,9,10,10,15,15,16,16,17,17,18,18,21,21,22,22,23,23,24,24,25,25,26,26],"right_children":[2,4,6,8,10,12,-1,-1,14,16,18,-1,-1,-1,-1,20,22,24,26,-1,-1,28,30,32,34,36,38,-1,-1,-1,-1,-1,-1,-1,-1,-1,-1,-1,-1],"split_conditions":[1.2124236E0,-5.8940315E-1,2.1242146E0,-8.3106905E-1,-1.7829207E-1,1.6095297E0,7.497404E1,-2.8480543E1,-6.4838606E-1,-4.336937E-1,-3.5101555E-2,4.3694164E1,5.5673126E1,-2.4496902E1,-1.7550518E1,-5.199617E-1,-3.179119E-1,-4.9193513E-2,8.243496E-2,-1.6971916E1,-1.4758849E1,-3.8004866E-1,-2.555588E-1,-1.703895E0,-2.751787E-1,-5.3282622E-2,1.5367705E-1,-1.2329441E1,-1.0778491E1,-8.80815E0,-6.719294E0,-1.8060263E0,-4.575603E0,-1.8381017E0,-4.5462036E-1,1.6141617E0,-1.181773E0,3.532868E0,5.1364036E0],"split_indices":[0,0,0,0,0,0,0,0,4,0,0,0,0,0,0,0,0,0,0,0,0,0,0,2,1,4,0,0,0,0,0,0,0,0,0,0,0,0,0],"split_type":[0,0,0,0,0,0,0,0,0,0,0,0,0,0,0,0,0,0,0,0,0,0,0,0,0,0,0,0,0,0,0,0,0,0,0,0,0,0,0],"sum_hessian":[1.335E3,1.074E3,2.61E2,2.77E2,7.97E2,1.77E2,8.4E1,1.85E2,9.2E1,6.79E2,1.18E2,9.7E1,8E1,7.9E1,1.3E1,2.29E2,4.5E2,3.1E1,8.7E1,1.29E2,1E2,2.83E2,1.67E2,2.6E1,5E0,3.9E1,4.8E1,1.07E2,1.76E2,8.9E1,7.8E1,2E0,2.4E1,4E0,1E0,3.7E1,2E0,3.8E1,1E1],"tree_param":{"num_deleted":"0","num_feature":"7","num_nodes":"39","size_leaf_vector":"1"}},{"base_weights":[6.7343636E0,-2.780986E2,1.113094E3,-5.1123248E2,-1.9290318E2,9.391508E2,7.151541E1,-2.8263065E1,-4.741194E2,-2.2666779E2,3.618907E1,4.065326E1,5.227174E1,-2.4292265E1,-1.696587E1,-2.9710217E2,-1.8443771E2,-2.9623367E1,6.003492E1,-1.5766459E1,-1.2921974E1,-2.0778455E2,-1.3486407E2,-5.585882E1,2.92703E0,2.5377161E1,7.175937E1,-1.0931127E1,-9.271646E0,-7.401223E0,-5.5947433E0,-3.2385166E0,-1.2540869E0,-9.72406E-1,5.7921934E-1,1.9556631E0,9.0954554E-1,3.1359076E0,5.0700336E0],"categories":[],"categories_nodes":[],"categories_segments":[],"categories_sizes":[],"default_left":[0,0,0,0,0,0,0,0,0,0,0,0,0,0,0,0,0,0,0,0,0,0,0,0,0,0,0,0,0,0,0,0,0,0,0,0,0,0,0],"id":9,"left_children":[1,3,5,7,9,11,-1,-1,13,15,17,-1,-1,-1,-1,19,21,23,25,-1,-1,27,29,31,33,35,37,-1,-1,-1,-1,-1,-1,-1,-1,-1,-1,-1,-1],"loss_changes":[4.124966E8,2.0577656E7,1.3444224E7,2.8944E5,5.917902E6,1.50856E6,0E0,0E0,1.0544E5,1.926188E6,1.5714444E5,0E0,0E0,0E0,0E0,9.3274E4,4.56922E5,2.3220814E4,2.7841969E4,0E0,0E0,2.8016E4,2.484975E4,2.4895E3,2.74352E3,1.2627148E3,8.112E3,0E0,0E0,0E0,0E0,0E0,0E0,0E0,0E0,0E0,0E0,0E0,0E0],"parents":[2147483647,0,0,1,1,2,2,3,3,4,4,5,5,8,8,9,9,10,10,15,15,16,16,17,17,18,18,21,21,22,22,23,23,24,24,25,25,26,26],"right_children":[2,4,6,8,10,12,-1,-1,14,16,18,-1,-1,-1,-1,20,22,24,26,-1,-1,28,30,32,34,36,38,-1,-1,-1,-1,-1,-1,-1,-1,-1,-1,-1,-1],"split_conditions":[1.2124236E0,-5.8940315E-1,2.3254087E0,-9.109878E-1,-1.4568958E-1,1.5236874E0,7.151541E1,-2.8263065E1,-5.650869E-1,-4.074853E-1,2.486712E-2,4.065326E1,5.227174E1,-2.4292265E1,-1.696587E1,-4.8856527E-1,-2.8795555E-1,-3.5101555E-2,6.468968E-2,-1.5766459E1,-1.2921974E1,-3.4645382E-1,-2.1983705E-1,-4.9193513E-2,-8.216171E-1,-3.669156E-1,1.5367705E-1,-1.0931127E1,-9.271646E0,-7.401223E0,-5.5947433E0,-3.2385166E0,-1.2540869E0,-9.72406E-1,5.7921934E-1,1.9556631E0,9.0954554E-1,3.1359076E0,5.0700336E0],"split_indices":[0,0,3,0,0,0,0,0,3,0,0,0,0,0,0,0,0,0,0,0,0,0,0,0,2,6,0,0,0,0,0,0,0,0,0,0,0,0,0],"split_type":[0,0,0,0,0,0,0,0,0,0,0,0,0,0,0,0,0,0,0,0,0,0,0,0,0,0,0,0,0,0,0,0,0,0,0,0,0,0,0],"sum_hessian":[1.307E3,1.04E3,2.67E2,2.77E2,7.63E2,1.75E2,9.2E1,1.07E2,1.7E2,6.65E2,9.8E1,8.4E1,9.1E1,1.54E2,1.6E1,2.47E2,4.18E2,2.6E1,7.2E1,1.63E2,8.4E1,2.82E2,1.36E2,1.4E1,1.2E1,1.9E1,5.3E1,1.84E2,9.8E1,8.3E1,5.3E1,1E1,4E0,3E0,9E0,5E0,1.4E1,4.3E1,1E1],"tree_param":{"num_deleted":"0","num_feature":"7","num_nodes":"39","size_leaf_vector":"1"}},{"base_weights":[2.0941384E0,-2.6432153E2,1.0510981E3,-4.9284134E2,-1.8591075E2,8.940596E2,6.768125E1,-2.6705631E1,-4.5543814E2,-2.1739749E2,4.153417E1,3.93236E1,5.000227E1,-2.3005772E1,-1.3324901E1,-2.9131497E2,-1.8005402E2,1.1895383E1,6.974949E1,-1.4990857E1,-1.1978587E1,-2.0560017E2,-1.4729036E2,2.394544E1,-4.432103E1,5.2111977E1,8.072452E1,-1.0823893E1,-9.087786E0,-8.304873E0,-6.1023026E0,-2.5456697E-1,1.5036674E0,-2.618862E0,-1.0578232E0,1.9988708E-1,2.710638E0,4.281017E0,2.0050282E0],"categories":[],"categories_nodes":[],"categories_segments":[],"categories_sizes":[],"default_left":[0,0,0,0,0,0,0,0,0,0,0,0,0,0,0,0,0,0,0,0,0,0,0,0,0,0,0,0,0,0,0,0,0,0,0,0,0,0,0],"id":10,"left_children":[1,3,5,7,9,11,-1,-1,13,15,17,-1,-1,-1,-1,19,21,23,25,-1,-1,27,29,31,33,35,37,-1,-1,-1,-1,-1,-1,-1,-1,-1,-1,-1,-1],"loss_changes":[3.7532806E8,1.9099008E7,1.1712096E7,1.78164E5,5.731064E6,1.288784E6,0E0,0E0,9.938E3,1.885302E6,8.112455E4,0E0,0E0,0E0,0E0,3.1118E4,3.62265E5,3.425442E4,5.4718906E3,0E0,0E0,2.8349E4,7.8956E4,7.4484336E3,5.714492E2,2.0069805E3,2.3343281E3,0E0,0E0,0E0,0E0,0E0,0E0,0E0,0E0,0E0,0E0,0E0,0E0],"parents":[2147483647,0,0,1,1,2,2,3,3,4,4,5,5,8,8,9,9,10,10,15,15,16,16,17,17,18,18,21,21,22,22,23,23,24,24,25,25,26,26],"right_children":[2,4,6,8,10,12,-1,-1,14,16,18,-1,-1,-1,-1,20,22,24,26,-1,-1,28,30,32,34,36,38,-1,-1,-1,-1,-1,-1,-1,-1,-1,-1,-1,-1],"split_conditions":[1.4140652E0,-5.7174224E-1,2.298434E0,-9.071898E-1,-2.6882533E-2,1.9019891E0,6.768125E1,-2.6705631E1,-6.4838606E-1,-4.440626E-1,1.0639656E-1,3.93236E1,5.000227E1,-2.3005772E1,-1.3324901E1,6.6148174E-1,-3.257238E-1,-5.3282622E-2,-1.5494555E-1,-1.4990857E1,-1.1978587E1,3.4329745E-1,5.276227E-1,-8.007409E-1,2.6334094E-2,2.9257143E-1,-2.8895527E-1,-1.0823893E1,-9.087786E0,-8.304873E0,-6.1023026E0,-2.5456697E-1,1.5036674E0,-2.618862E0,-1.0578232E0,1.9988708E-1,2.710638E0,4.281017E0,2.0050282E0],"split_indices":[4,5,5,4,5,4,0,0,4,5,6,0,0,0,0,6,5,4,4,0,0,6,6,2,5,6,1,0,0,0,0,0,0,0,0,0,0,0,0],"split_type":[0,0,0,0,0,0,0,0,0,0,0,0,0,0,0,0,0,0,0,0,0,0,0,0,0,0,0,0,0,0,0,0,0,0,0,0,0,0,0],"sum_hessian":[1.341E3,1.07E3,2.71E2,2.72E2,7.98E2,1.81E2,9E1,1.23E2,1.49E2,7.01E2,9.7E1,9.4E1,8.7E1,1.44E2,5E0,2.33E2,4.68E2,4.8E1,4.9E1,1.96E2,3.7E1,2.6E2,2.08E2,4E1,8E0,2.1E1,2.8E1,1.73E2,8.7E1,1.16E2,9.2E1,7E0,3.3E1,5E0,3E0,1E0,2E1,2.4E1,4E0],"tree_param":{"num_deleted":"0","num_feature":"7","num_nodes":"39","size_leaf_vector":"1"}},{"base_weights":[-8.3047247E-1,-2.505596E2,1.0018445E3,-4.6630865E2,-1.7770078E2,8.475993E2,6.470309E1,-2.5260397E1,-2.1698996E1,-2.0750851E2,4.0467705E1,3.7336086E1,4.7519787E1,-2.760575E2,-1.7123126E2,4.946702E1,-4.277302E1,-1.4208081E1,-1.125366E1,-1.9576271E2,-1.4021548E2,2.6624247E1,6.882722E1,-2.4734142E0,-1.0181534E0,-1.02446785E1,-8.593773E0,-7.8512645E0,-5.6765833E0,-4.5142213E-1,1.7006371E0,3.0038307E0,4.467172E0],"categories":[],"categories_nodes":[],"categories_segments":[],"categories_sizes":[],"default_left":[0,0,0,0,0,0,0,0,0,0,0,0,0,0,0,0,0,0,0,0,0,0,0,0,0,0,0,0,0,0,0,0,0],"id":11,"left_children":[1,3,5,7,9,11,-1,-1,-1,13,15,-1,-1,17,19,21,23,-1,-1,25,27,29,31,-1,-1,-1,-1,-1,-1,-1,-1,-1,-1],"loss_changes":[3.340304E8,1.6705268E7,1.0892576E7,1.19036E5,5.210884E6,1.125776E6,0E0,0E0,0E0,1.703414E6,7.477947E4,0E0,0E0,3.6034E4,3.24831E5,3.7084703E4,4.9307812E2,0E0,0E0,2.062E4,7.547075E4,1.1370707E4,3.0704219E3,0E0,0E0,0E0,0E0,0E0,0E0,0E0,0E0,0E0,0E0],"parents":[2147483647,0,0,1,1,2,2,3,3,4,4,5,5,9,9,10,10,13,13,14,14,15,15,16,16,19,19,20,20,21,21,22,22],"right_children":[2,4,6,8,10,12,-1,-1,-1,14,16,-1,-1,18,20,22,24,-1,-1,26,28,30,32,-1,-1,-1,-1,-1,-1,-1,-1,-1,-1],"split_conditions":[1.4140652E0,-5.7174224E-1,2.298434E0,-9.071898E-1,-2.6882533E-2,1.9019891E0,6.470309E1,-2.5260397E1,-2.1698996E1,-4.3376383E-1,-5.6701202E-2,3.7336086E1,4.7519787E1,6.833625E-1,-3.257238E-1,1.7355758E-1,2.6334094E-2,-1.4208081E1,-1.125366E1,4.4286424E-1,-2.656913E-1,-8.007409E-1,7.884897E-1,-2.4734142E0,-1.0181534E0,-1.02446785E1,-8.593773E0,-7.8512645E0,-5.6765833E0,-4.5142213E-1,1.7006371E0,3.0038307E0,4.467172E0],"split_indices":[4,5,5,4,5,4,0,0,0,5,4,0,0,6,5,6,5,0,0,6,5,2,6,0,0,0,0,0,0,0,0,0,0],"split_type":[0,0,0,0,0,0,0,0,0,0,0,0,0,0,0,0,0,0,0,0,0,0,0,0,0,0,0,0,0,0,0,0,0],"sum_hessian":[1.332E3,1.067E3,2.65E2,2.68E2,7.99E2,1.76E2,8.9E1,1.15E2,1.53E2,7.03E2,9.6E1,9.3E1,8.3E1,2.41E2,4.62E2,8.7E1,9E0,2.04E2,3.7E1,2.55E2,2.07E2,4.1E1,4.6E1,6E0,3E0,1.79E2,7.6E1,1.24E2,8.3E1,7E0,3.4E1,3.5E1,1.1E1],"tree_param":{"num_deleted":"0","num_feature":"7","num_nodes":"33","size_leaf_vector":"1"}},{"base_weights":[-5.2738905E0,-2.3826532E2,9.4620166E2,-4.4713602E2,-1.6825975E2,8.008202E2,6.1310608E1,-2.4176691E1,-2.0818998E1,-1.9830884E2,3.2048447E1,3.547283E1,4.4960815E1,-2.650089E2,-1.647493E2,-4.1190777E1,4.650078E1,-1.3584284E1,-1.0815539E1,-1.8852596E2,-1.3721474E2,-8.675903E0,-5.3029118E1,2.4823969E1,6.449922E1,-1.0370358E1,-8.689253E0,-7.9929285E0,-5.9598007E0,4.5657754E-1,-9.931259E-1,-2.9314058E0,-7.4115396E-1,9.5921594E-1,2.319722E0,3.3144605E0,-4.9075928E-1],"categories":[],"categories_nodes":[],"categories_segments":[],"categories_sizes":[],"default_left":[0,0,0,0,0,0,0,0,0,0,0,0,0,0,0,0,0,0,0,0,0,0,0,0,0,0,0,0,0,0,0,0,0,0,0,0,0],"id":12,"left_children":[1,3,5,7,9,11,-1,-1,-1,13,15,-1,-1,17,19,21,23,-1,-1,25,27,29,31,33,35,-1,-1,-1,-1,-1,-1,-1,-1,-1,-1,-1,-1],"loss_changes":[2.9639747E8,1.5628912E7,9.724304E6,9.98E4,4.857732E6,9.44256E5,0E0,0E0,0E0,1.525472E6,1.1411403E5,0E0,0E0,1.6991E4,2.81177E5,6.4685254E3,3.312211E4,0E0,0E0,3.3259E4,7.1116E4,1.3766063E3,1.9118516E3,4.21925E3,7.0356875E3,0E0,0E0,0E0,0E0,0E0,0E0,0E0,0E0,0E0,0E0,0E0,0E0],"parents":[2147483647,0,0,1,1,2,2,3,3,4,4,5,5,9,9,10,10,13,13,14,14,15,15,16,16,19,19,20,20,21,21,22,22,23,23,24,24],"right_children":[2,4,6,8,10,12,-1,-1,-1,14,16,-1,-1,18,20,22,24,-1,-1,26,28,30,32,34,36,-1,-1,-1,-1,-1,-1,-1,-1,-1,-1,-1,-1],"split_conditions":[1.3007907E0,-8.018207E-1,2.3254087E0,-9.071898E-1,3.1663636E-3,1.9019891E0,6.1310608E1,-2.4176691E1,-2.0818998E1,-4.5906577E-1,-1.0593929E0,3.547283E1,4.4960815E1,6.757481E-1,-3.324712E-1,-1.7540689E-1,2.9257143E-1,-1.3584284E1,-1.0815539E1,7.752324E-2,1.6524239E-1,5.9731405E-2,5.9731405E-2,3.254958E-1,8.528839E-2,-1.0370358E1,-8.689253E0,-7.9929285E0,-5.9598007E0,4.5657754E-1,-9.931259E-1,-2.9314058E0,-7.4115396E-1,9.5921594E-1,2.319722E0,3.3144605E0,-4.9075928E-1],"split_indices":[3,5,3,4,3,4,0,0,0,5,2,0,0,6,5,4,6,0,0,6,6,3,3,2,3,0,0,0,0,0,0,0,0,0,0,0,0],"split_type":[0,0,0,0,0,0,0,0,0,0,0,0,0,0,0,0,0,0,0,0,0,0,0,0,0,0,0,0,0,0,0,0,0,0,0,0,0],"sum_hessian":[1.335E3,1.073E3,2.62E2,2.68E2,8.05E2,1.75E2,8.7E1,1.16E2,1.52E2,7E2,1.05E2,9.5E1,8E1,2.32E2,4.68E2,1.7E1,8.8E1,2E2,3.2E1,2.48E2,2.2E2,5E0,1.2E1,4.1E1,4.7E1,1.03E2,1.45E2,9.4E1,1.26E2,2E0,3E0,1E1,2E0,3.4E1,7E0,4.6E1,1E0],"tree_param":{"num_deleted":"0","num_feature":"7","num_nodes":"37","size_leaf_vector":"1"}},{"base_weights":[-1.729231E0,-2.2771866E2,9.0737115E2,-4.1309747E2,-1.5419273E2,7.4613007E2,1.1333663E3,-2.2155716E1,-3.5535336E2,-1.8873532E2,-7.1984863E-1,3.120992E1,4.0562984E1,4.7137936E1,5.941473E1,-1.8832495E1,-1.4217542E1,-2.318902E2,-1.4959773E2,-7.698867E1,3.947254E1,-1.2679206E1,-1.0327576E1,-8.505195E0,-1.2687494E2,-4.1653795E0,-2.3793142E0,1.716053E1,6.094471E1,-6.882933E0,-5.3558397E0,-2.080096E-1,1.4149487E0,2.6242228E0,4.193075E0],"categories":[],"categories_nodes":[],"categories_segments":[],"categories_sizes":[],"default_left":[0,0,0,0,0,0,0,0,0,0,0,0,0,0,0,0,0,0,0,0,0,0,0,0,0,0,0,0,0,0,0,0,0,0,0],"id":13,"left_children":[1,3,5,7,9,11,13,-1,15,17,19,-1,-1,-1,-1,-1,-1,21,23,25,27,-1,-1,-1,29,-1,-1,31,33,-1,-1,-1,-1,-1,-1],"loss_changes":[2.7242397E8,1.4411524E7,8.774432E6,3.6426E5,4.039492E6,7.40408E5,1.0464E4,0E0,5.6206E4,1.015854E6,4.3526406E5,0E0,0E0,0E0,0E0,0E0,0E0,1.09232E5,1.317185E5,5.1394688E3,4.3509266E4,0E0,0E0,0E0,1.9345E4,0E0,0E0,1.1279275E4,4.7110312E3,0E0,0E0,0E0,0E0,0E0,0E0],"parents":[2147483647,0,0,1,1,2,2,3,3,4,4,5,5,6,6,8,8,9,9,10,10,17,17,18,18,19,19,20,20,24,24,27,27,28,28],"right_children":[2,4,6,8,10,12,14,-1,16,18,20,-1,-1,-1,-1,-1,-1,22,24,26,28,-1,-1,-1,30,-1,-1,32,34,-1,-1,-1,-1,-1,-1],"split_conditions":[1.2124236E0,-5.759652E-1,1.8885024E0,-8.3106905E-1,-2.0412014E-1,1.4513054E0,2.2978384E0,-2.2155716E1,-6.4838606E-1,-3.8936585E-1,-4.9193513E-2,3.120992E1,4.0562984E1,4.7137936E1,5.941473E1,-1.8832495E1,-1.4217542E1,-4.8856527E-1,-3.2727945E-1,-1.4568958E-1,8.243496E-2,-1.2679206E1,-1.0327576E1,-8.505195E0,-2.555588E-1,-4.1653795E0,-2.3793142E0,2.486712E-2,1.5367705E-1,-6.882933E0,-5.3558397E0,-2.080096E-1,1.4149487E0,2.6242228E0,4.193075E0],"split_indices":[0,0,0,0,0,0,0,0,4,0,0,0,0,0,0,0,0,0,0,0,0,0,0,0,0,0,0,0,0,0,0,0,0,0,0],"split_type":[0,0,0,0,0,0,0,0,0,0,0,0,0,0,0,0,0,0,0,0,0,0,0,0,0,0,0,0,0,0,0,0,0,0,0],"sum_hessian":[1.324E3,1.061E3,2.63E2,3E2,7.61E2,1.56E2,1.07E2,1.93E2,1.07E2,6.21E2,1.4E2,5.8E1,9.8E1,2.8E1,7.9E1,7.9E1,2.8E1,2.93E2,3.28E2,4.8E1,9.2E1,1.53E2,1.4E2,1.69E2,1.59E2,3.8E1,1E1,4.6E1,4.6E1,9.9E1,6E1,1.6E1,3E1,3.6E1,1E1],"tree_param":{"num_deleted":"0","num_feature":"7","num_nodes":"35","size_leaf_vector":"1"}},{"base_weights":[2.6397446E-1,-2.1548193E2,8.648567E2,-4.0197562E2,-1.523535E2,7.0257697E2,1.0746499E3,-2.1945883E1,-1.8700476E1,-1.7762294E2,3.1502161E1,3.174278E1,3.9276806E1,4.7350643E1,5.759784E1,-2.3904416E2,-1.476972E2,9.41291E0,5.626799E1,-1.2416598E1,-1.0395812E1,-1.6847797E2,-1.1846964E2,1.9209526E1,-2.0308025E0,5.8002033E1,-5.440979E-1,-8.851851E0,-7.387544E0,-6.765474E0,-4.8004985E0,-1.326294E-1,1.2765816E0,2.0204372E0,3.362025E0],"categories":[],"categories_nodes":[],"categories_segments":[],"categories_sizes":[],"default_left":[0,0,0,0,0,0,0,0,0,0,0,0,0,0,0,0,0,0,0,0,0,0,0,0,0,0,0,0,0,0,0,0,0,0,0],"id":14,"left_children":[1,3,5,7,9,11,13,-1,-1,15,17,-1,-1,-1,-1,19,21,23,25,-1,-1,27,29,31,-1,33,-1,-1,-1,-1,-1,-1,-1,-1,-1],"loss_changes":[2.5032622E8,1.258302E7,8.369088E6,1.1582E5,3.740924E6,3.6648E5,4.3816E4,0E0,0E0,1.264214E6,5.3082094E4,0E0,0E0,0E0,0E0,1.4863E4,2.70364E5,2.6756285E4,5.987453E3,0E0,0E0,2.29835E4,6.340875E4,6.287383E3,0E0,4.5969688E3,0E0,0E0,0E0,0E0,0E0,0E0,0E0,0E0,0E0],"parents":[2147483647,0,0,1,1,2,2,3,3,4,4,5,5,6,6,9,9,10,10,15,15,16,16,17,17,18,18,21,21,22,22,23,23,25,25],"right_children":[2,4,6,8,10,12,14,-1,-1,16,18,-1,-1,-1,-1,20,22,24,26,-1,-1,28,30,32,-1,34,-1,-1,-1,-1,-1,-1,-1,-1,-1],"split_conditions":[1.3007907E0,-5.650869E-1,2.069537E0,-9.1755694E-1,3.5398412E-2,1.8769147E0,-1.2965682E0,-2.1945883E1,-1.8700476E1,-4.5906577E-1,1.0639656E-1,3.174278E1,3.9276806E1,4.7350643E1,5.759784E1,3.9748973E-1,-3.205203E-1,-5.3282622E-2,8.528839E-2,-1.2416598E1,-1.0395812E1,3.7453005E-1,5.276227E-1,-1.7899299E-1,-2.0308025E0,-1.5900128E-1,-5.440979E-1,-8.851851E0,-7.387544E0,-6.765474E0,-4.8004985E0,-1.326294E-1,1.2765816E0,2.0204372E0,3.362025E0],"split_indices":[3,3,3,5,3,4,6,0,0,5,6,0,0,0,0,6,5,4,3,0,0,6,6,4,0,4,0,0,0,0,0,0,0,0,0],"split_type":[0,0,0,0,0,0,0,0,0,0,0,0,0,0,0,0,0,0,0,0,0,0,0,0,0,0,0,0,0,0,0,0,0,0,0],"sum_hessian":[1.34E3,1.073E3,2.67E2,2.7E2,8.03E2,1.53E2,1.14E2,1.1E2,1.6E2,7.06E2,9.7E1,8.9E1,6.4E1,4.8E1,6.6E1,2.29E2,4.77E2,5.2E1,4.5E1,1.71E2,5.8E1,2.76E2,2.01E2,4.4E1,8E0,4.4E1,1E0,1.9E2,8.6E1,1.12E2,8.9E1,1E1,3.4E1,1.7E1,2.7E1],"tree_param":{"num_deleted":"0","num_feature":"7","num_nodes":"35","size_leaf_vector":"1"}},{"base_weights":[2.0812159E0,-2.029523E2,8.137604E2,-3.653261E2,-1.3477054E2,6.6729407E2,1.01994745E3,-3.8539255E2,-1.2879129E1,-1.6717772E2,1.8704343E0,2.7898615E1,3.5834553E1,4.507999E1,5.560481E1,-2.1308363E1,-1.8071999E1,-2.052907E2,-1.3350304E2,-6.2430763E1,4.0006634E1,-1.1030658E1,-8.9351845E0,-1.4606725E2,-1.0484858E2,-3.646944E0,-3.5269638E1,2.0119455E1,5.8196346E1,-7.6556077E0,-6.5108857E0,-5.514251E0,-4.327104E0,7.521159E-2,-2.0136554E0,1.3077444E-1,1.2852789E0,2.5151365E0,4.118623E0],"categories":[],"categories_nodes":[],"categories_segments":[],"categories_sizes":[],"default_left":[0,0,0,0,0,0,0,0,0,0,0,0,0,0,0,0,0,0,0,0,0,0,0,0,0,0,0,0,0,0,0,0,0,0,0,0,0,0,0],"id":15,"left_children":[1,3,5,7,9,11,13,15,-1,17,19,-1,-1,-1,-1,-1,-1,21,23,25,27,-1,-1,29,31,-1,33,35,37,-1,-1,-1,-1,-1,-1,-1,-1,-1,-1],"loss_changes":[2.203407E8,1.1652744E7,7.382656E6,5.7528E5,3.303712E6,4.58728E5,1.86048E5,1.00872E5,0E0,7.46508E5,3.5561494E5,0E0,0E0,0E0,0E0,0E0,0E0,7.5049E4,1.009715E5,1.283975E4,3.1747625E4,0E0,0E0,4.8505E3,6.07E2,0E0,3.1885254E3,4.332838E3,4.8257812E3,0E0,0E0,0E0,0E0,0E0,0E0,0E0,0E0,0E0,0E0],"parents":[2147483647,0,0,1,1,2,2,3,3,4,4,5,5,6,6,7,7,9,9,10,10,17,17,18,18,19,19,20,20,23,23,24,24,26,26,27,27,28,28],"right_children":[2,4,6,8,10,12,14,16,-1,18,20,-1,-1,-1,-1,-1,-1,22,24,26,28,-1,-1,30,32,-1,34,36,38,-1,-1,-1,-1,-1,-1,-1,-1,-1,-1],"split_conditions":[1.2124236E0,-5.60425E-1,1.8709393E0,-7.917021E-1,-2.0412014E-1,1.436315E0,2.390913E0,-9.350854E-1,-1.2879129E1,-3.8373372E-1,-3.5101555E-2,2.7898615E1,3.5834553E1,4.507999E1,5.560481E1,-2.1308363E1,-1.8071999E1,-4.459584E-1,-2.8795555E-1,-1.4568958E-1,8.243496E-2,-1.1030658E1,-8.9351845E0,-3.3408222E-1,-2.261376E-1,-3.646944E0,-5.7517546E-1,2.486712E-2,1.5367705E-1,-7.6556077E0,-6.5108857E0,-5.514251E0,-4.327104E0,7.521159E-2,-2.0136554E0,1.3077444E-1,1.2852789E0,2.5151365E0,4.118623E0],"split_indices":[0,0,0,0,0,0,0,0,0,0,0,0,0,0,0,0,0,0,0,0,0,0,0,0,0,0,1,0,0,0,0,0,0,0,0,0,0,0,0],"split_type":[0,0,0,0,0,0,0,0,0,0,0,0,0,0,0,0,0,0,0,0,0,0,0,0,0,0,0,0,0,0,0,0,0,0,0,0,0,0,0],"sum_hessian":[1.322E3,1.056E3,2.66E2,3.11E2,7.45E2,1.58E2,1.08E2,2.6E2,5.1E1,6.02E2,1.43E2,5.3E1,1.05E2,5.2E1,5.6E1,9E1,1.7E2,2.8E2,3.22E2,5.3E1,9E1,1.73E2,1.07E2,2.21E2,1.01E2,3.7E1,1.6E1,4.4E1,4.6E1,1.47E2,7.4E1,7.4E1,2.7E1,2E0,1.4E1,1.1E1,3.3E1,3.7E1,9E0],"tree_param":{"num_deleted":"0","num_feature":"7","num_nodes":"39","size_leaf_vector":"1"}},{"base_weights":[-4.3364086E0,-1.92679E2,7.7522955E2,-3.615163E2,-1.3538774E2,6.450642E2,4.929845E1,-1.9360014E1,-3.2794574E2,-1.5946042E2,2.9527403E1,2.8678223E1,3.6707855E1,-1.6595078E1,-9.741572E0,-2.0875047E2,-1.3074644E2,3.755614E1,-2.4195017E1,-2.15131E2,-8.115775E0,-1.4217003E2,-8.88469E1,2.1186855E1,5.0820507E1,1.6308105E0,-3.4688427E1,-1.0942528E1,-8.455403E0,-7.6150947E0,-6.329015E0,-4.1049986E0,-7.000496E0,-3.829051E-1,1.2645899E0,2.6186874E0,-5.9337467E-1,6.0545653E-1,-4.6955568E-1,-1.9819876E0,-8.675751E-1],"categories":[],"categories_nodes":[],"categories_segments":[],"categories_sizes":[],"default_left":[0,0,0,0,0,0,0,0,0,0,0,0,0,0,0,0,0,0,0,0,0,0,0,0,0,0,0,0,0,0,0,0,0,0,0,0,0,0,0,0,0],"id":16,"left_children":[1,3,5,7,9,11,-1,-1,13,15,17,-1,-1,-1,-1,19,21,23,25,27,-1,29,31,33,35,37,39,-1,-1,-1,-1,-1,-1,-1,-1,-1,-1,-1,-1,-1,-1],"loss_changes":[1.9542725E8,1.0320404E7,6.468608E6,1.0668E5,3.188605E6,6.17248E5,0E0,0E0,6.31E2,9.63426E5,4.5334953E4,0E0,0E0,0E0,0E0,4.0929E4,2.00365E5,1.8464812E4,3.850585E3,9.93E2,0E0,3.5689E4,2.233425E4,5.1667773E3,5.3926562E3,6.9117444E2,1.7059863E2,0E0,0E0,0E0,0E0,0E0,0E0,0E0,0E0,0E0,0E0,0E0,0E0,0E0,0E0],"parents":[2147483647,0,0,1,1,2,2,3,3,4,4,5,5,8,8,9,9,10,10,15,15,16,16,17,17,18,18,19,19,21,21,22,22,23,23,24,24,25,25,26,26],"right_children":[2,4,6,8,10,12,-1,-1,14,16,18,-1,-1,-1,-1,20,22,24,26,28,-1,30,32,34,36,38,40,-1,-1,-1,-1,-1,-1,-1,-1,-1,-1,-1,-1,-1,-1],"split_conditions":[1.3007907E0,-5.650869E-1,2.1827073E0,-8.6309326E-1,3.5398412E-2,1.9019891E0,4.929845E1,-1.9360014E1,-5.7174224E-1,-4.099798E-1,-6.119398E-2,2.8678223E1,3.6707855E1,-1.6595078E1,-9.741572E0,7.2901285E-1,-2.7456933E-1,1.7355758E-1,-5.3282622E-2,-4.225436E-1,-8.115775E0,2.9172894E-1,-2.683967E-2,-1.0593929E0,8.528839E-2,-4.2888522E-1,5.9731405E-2,-1.0942528E1,-8.455403E0,-7.6150947E0,-6.329015E0,-4.1049986E0,-7.000496E0,-3.829051E-1,1.2645899E0,2.6186874E0,-5.9337467E-1,6.0545653E-1,-4.6955568E-1,-1.9819876E0,-8.675751E-1],"split_indices":[3,3,3,3,3,4,0,0,5,5,4,0,0,0,0,6,5,6,4,5,0,2,4,2,3,2,3,0,0,0,0,0,0,0,0,0,0,0,0,0,0],"split_type":[0,0,0,0,0,0,0,0,0,0,0,0,0,0,0,0,0,0,0,0,0,0,0,0,0,0,0,0,0,0,0,0,0,0,0,0,0,0,0,0,0],"sum_hessian":[1.329E3,1.071E3,2.58E2,2.7E2,8.01E2,1.62E2,9.6E1,1.47E2,1.23E2,6.99E2,1.02E2,9.4E1,6.8E1,1.18E2,5E0,2.55E2,4.44E2,8.9E1,1.3E1,2.21E2,3.4E1,3.47E2,9.7E1,4.1E1,4.8E1,4E0,9E0,2.01E2,2E1,2.05E2,1.42E2,8.8E1,9E0,5E0,3.6E1,4.7E1,1E0,2E0,2E0,6E0,3E0],"tree_param":{"num_deleted":"0","num_feature":"7","num_nodes":"41","size_leaf_vector":"1"}},{"base_weights":[1.3535644E0,-1.8422823E2,7.395209E2,-3.2675272E2,-1.2292693E2,6.027245E2,9.190289E2,-3.4661813E2,-1.1744616E1,-1.4873032E2,1.0481664E1,2.504484E1,3.246348E1,3.9693542E1,4.9317932E1,-1.9311565E1,-1.6281828E1,-1.8413306E2,-1.18601555E2,-4.9401093E1,3.5140255E1,-9.897526E0,-8.028272E0,-1.3165176E2,-9.037452E1,1.7093912E0,-5.2457867E1,1.6886139E1,5.0316395E1,-4.3338275E0,-6.6647325E0,-4.805172E0,-3.69606E0,-5.218933E-1,6.5009767E-1,-2.7297864E0,-6.084046E-1,-1.2995939E-1,1.1627786E0,2.181913E0,3.5330842E0],"categories":[],"categories_nodes":[],"categories_segments":[],"categories_sizes":[],"default_left":[0,0,0,0,0,0,0,0,0,0,0,0,0,0,0,0,0,0,0,0,0,0,0,0,0,0,0,0,0,0,0,0,0,0,0,0,0,0,0,0,0],"id":17,"left_children":[1,3,5,7,9,11,13,15,-1,17,19,-1,-1,-1,-1,-1,-1,21,23,25,27,-1,-1,29,31,33,35,37,39,-1,-1,-1,-1,-1,-1,-1,-1,-1,-1,-1,-1],"loss_changes":[1.8274445E8,9.273404E6,6.027104E6,5.02532E5,2.573027E6,4.09412E5,1.77624E5,9.116E4,0E0,6.45879E5,1.8188416E5,0E0,0E0,0E0,0E0,0E0,0E0,6.1351E4,1.137155E5,5.7140703E3,2.3251695E4,0E0,0E0,5.5145E3,3.3586875E3,5.472336E2,2.2642266E3,5.1489775E3,3.3022734E3,0E0,0E0,0E0,0E0,0E0,0E0,0E0,0E0,0E0,0E0,0E0,0E0],"parents":[2147483647,0,0,1,1,2,2,3,3,4,4,5,5,6,6,7,7,9,9,10,10,17,17,18,18,19,19,20,20,23,23,24,24,25,25,26,26,27,27,28,28],"right_children":[2,4,6,8,10,12,14,16,-1,18,20,-1,-1,-1,-1,-1,-1,22,24,26,28,-1,-1,30,32,34,36,38,40,-1,-1,-1,-1,-1,-1,-1,-1,-1,-1,-1,-1],"split_conditions":[1.2124236E0,-5.575146E-1,1.8709393E0,-7.917021E-1,-1.8474911E-1,1.436315E0,2.3623872E0,-9.422961E-1,-1.1744616E1,-3.8373372E-1,-3.5101555E-2,2.504484E1,3.246348E1,3.9693542E1,4.9317932E1,-1.9311565E1,-1.6281828E1,-4.459584E-1,-2.8361556E-1,-5.7517546E-1,8.243496E-2,-9.897526E0,-8.028272E0,-4.7928107E-1,-2.1983705E-1,-7.4362034E-1,2.6334094E-2,2.486712E-2,1.5367705E-1,-4.3338275E0,-6.6647325E0,-4.805172E0,-3.69606E0,-5.218933E-1,6.5009767E-1,-2.7297864E0,-6.084046E-1,-1.2995939E-1,1.1627786E0,2.181913E0,3.5330842E0],"split_indices":[0,0,0,0,0,0,0,0,0,0,0,0,0,0,0,0,0,0,0,1,0,0,0,1,0,1,5,0,0,0,0,0,0,0,0,0,0,0,0,0,0],"split_type":[0,0,0,0,0,0,0,0,0,0,0,0,0,0,0,0,0,0,0,0,0,0,0,0,0,0,0,0,0,0,0,0,0,0,0,0,0,0,0,0,0],"sum_hessian":[1.332E3,1.065E3,2.67E2,3.19E2,7.46E2,1.54E2,1.13E2,2.6E2,5.9E1,6.25E2,1.21E2,5.2E1,1.02E2,4.4E1,6.9E1,8.4E1,1.76E2,2.85E2,3.4E2,3.5E1,8.6E1,1.75E2,1.1E2,2.3E2,1.1E2,2E0,3.3E1,4E1,4.6E1,1E1,2.2E2,7.8E1,3.2E1,1E0,1E0,3.1E1,2E0,1E1,3E1,3.7E1,9E0],"tree_param":{"num_deleted":"0","num_feature":"7","num_nodes":"41","size_leaf_vector":"1"}},{"base_weights":[1.8695788E0,-1.7536192E2,7.016328E2,-3.109668E2,-1.1578804E2,5.949796E2,4.5652378E1,-3.2940054E2,-1.1187693E1,-1.3896487E2,2.5239933E1,2.6287846E1,3.4172256E1,-1.85257E1,-1.5507667E1,-1.747087E2,-1.0977699E2,-1.6927965E1,3.8463703E1,-9.365026E0,-7.5946703E0,-1.2566138E2,-8.327449E1,-3.1172834E1,2.2887878E0,2.197253E1,4.9343624E1,-6.601712E0,-5.5651817E0,-4.6282325E0,-3.348962E0,-6.3729006E-1,-1.8357433E0,-1.1196228E0,3.2841074E-1,1.2192135E0,-1.1057892E-1,2.1497085E0,3.3396165E0],"categories":[],"categories_nodes":[],"categories_segments":[],"categories_sizes":[],"default_left":[0,0,0,0,0,0,0,0,0,0,0,0,0,0,0,0,0,0,0,0,0,0,0,0,0,0,0,0,0,0,0,0,0,0,0,0,0,0,0],"id":18,"left_children":[1,3,5,7,9,11,-1,13,-1,15,17,-1,-1,-1,-1,19,21,23,25,-1,-1,27,29,31,33,35,37,-1,-1,-1,-1,-1,-1,-1,-1,-1,-1,-1,-1],"loss_changes":[1.6630995E8,8.608E6,5.56728E6,4.50392E5,2.438601E6,7.61336E5,0E0,9.6368E4,0E0,6.48524E5,5.9758688E4,0E0,0E0,0E0,0E0,5.3715E4,1.38982E5,7.1885923E3,1.3449023E4,0E0,0E0,5.434E3,1.43885625E4,1.0638877E3,1.4145376E3,2.0370039E3,2.4462266E3,0E0,0E0,0E0,0E0,0E0,0E0,0E0,0E0,0E0,0E0,0E0,0E0],"parents":[2147483647,0,0,1,1,2,2,3,3,4,4,5,5,7,7,9,9,10,10,15,15,16,16,17,17,18,18,21,21,22,22,23,23,24,24,25,25,26,26],"right_children":[2,4,6,8,10,12,-1,14,-1,16,18,-1,-1,-1,-1,20,22,24,26,-1,-1,28,30,32,34,36,38,-1,-1,-1,-1,-1,-1,-1,-1,-1,-1,-1,-1],"split_conditions":[1.2124236E0,-5.575146E-1,2.1242146E0,-7.917021E-1,-1.4568958E-1,1.721436E0,4.5652378E1,-9.48367E-1,-1.1187693E1,-3.8373372E-1,2.486712E-2,2.6287846E1,3.4172256E1,-1.85257E1,-1.5507667E1,-4.422791E-1,-2.8795555E-1,-3.5101555E-2,8.243496E-2,-9.365026E0,-7.5946703E0,-3.3408222E-1,-2.1983705E-1,-1.7899299E-1,-1.840869E-1,-6.119398E-2,1.5367705E-1,-6.601712E0,-5.5651817E0,-4.6282325E0,-3.348962E0,-6.3729006E-1,-1.8357433E0,-1.1196228E0,3.2841074E-1,1.2192135E0,-1.1057892E-1,2.1497085E0,3.3396165E0],"split_indices":[0,0,0,0,0,0,0,0,0,0,0,0,0,0,0,0,0,0,0,0,0,0,0,4,4,4,0,0,0,0,0,0,0,0,0,0,0,0,0],"split_type":[0,0,0,0,0,0,0,0,0,0,0,0,0,0,0,0,0,0,0,0,0,0,0,0,0,0,0,0,0,0,0,0,0,0,0,0,0,0,0],"sum_hessian":[1.339E3,1.069E3,2.7E2,3.25E2,7.44E2,1.82E2,8.8E1,2.66E2,5.9E1,6.39E2,1.05E2,1.06E2,7.6E1,7.9E1,1.87E2,2.85E2,3.54E2,2.5E1,8E1,1.79E2,1.06E2,2.19E2,1.35E2,1.4E1,1.1E1,3.3E1,4.7E1,1.46E2,7.3E1,8.3E1,5.2E1,4E0,1E1,1E0,1E1,3E1,3E0,3.7E1,1E1],"tree_param":{"num_deleted":"0","num_feature":"7","num_nodes":"39","size_leaf_vector":"1"}},{"base_weights":[1.2839906E0,-1.6742749E2,6.667174E2,-2.975924E2,-1.1106603E2,5.6611017E2,4.3710884E1,-3.2451456E2,-2.4810771E2,-1.3469598E2,1.01246805E1,5.0060706E2,3.2435455E1,-1.7658056E1,-1.5256095E1,-1.35867E1,-1.061022E1,-1.6652109E2,-1.0685069E2,-4.292333E1,3.1959206E1,1.3153235E1,2.53639E1,-9.128777E0,-7.4244304E0,-1.1947848E2,-8.176406E1,2.091512E0,-4.563278E1,1.5054894E1,4.740201E1,-3.988074E0,-6.059361E0,-4.424703E0,-3.4446523E0,-4.929138E-1,6.4977723E-1,-2.4168375E0,-6.634399E-1,-4.1992188E-2,9.9484664E-1,2.569108E0,9.227592E-1],"categories":[],"categories_nodes":[],"categories_segments":[],"categories_sizes":[],"default_left":[0,0,0,0,0,0,0,0,0,0,0,0,0,0,0,0,0,0,0,0,0,0,0,0,0,0,0,0,0,0,0,0,0,0,0,0,0,0,0,0,0,0,0],"id":19,"left_children":[1,3,5,7,9,11,-1,13,15,17,19,21,-1,-1,-1,-1,-1,23,25,27,29,-1,-1,-1,-1,31,33,35,37,39,41,-1,-1,-1,-1,-1,-1,-1,-1,-1,-1,-1,-1],"loss_changes":[1.4931349E8,7.750742E6,5.120752E6,3.458E5,2.126251E6,6.70784E5,0E0,5.572E3,4.15835E4,5.32525E5,1.4268172E5,3.611E4,0E0,0E0,0E0,0E0,0E0,5.6266E4,9.60385E4,4.4861953E3,2.1997719E4,0E0,0E0,0E0,0E0,5.26425E3,3.864875E3,5.190163E2,2.3340078E3,3.3261152E3,4.236297E3,0E0,0E0,0E0,0E0,0E0,0E0,0E0,0E0,0E0,0E0,0E0,0E0],"parents":[2147483647,0,0,1,1,2,2,3,3,4,4,5,5,7,7,8,8,9,9,10,10,11,11,17,17,18,18,19,19,20,20,25,25,26,26,27,27,28,28,29,29,30,30],"right_children":[2,4,6,8,10,12,-1,14,16,18,20,22,-1,-1,-1,-1,-1,24,26,28,30,-1,-1,-1,-1,32,34,36,38,40,42,-1,-1,-1,-1,-1,-1,-1,-1,-1,-1,-1,-1],"split_conditions":[1.2124236E0,-5.60425E-1,2.2495537E0,-8.2141846E-1,-1.8474911E-1,1.721436E0,4.3710884E1,-9.48367E-1,-8.0240995E-1,-3.8004866E-1,-3.5101555E-2,1.2894096E0,3.2435455E1,-1.7658056E1,-1.5256095E1,-1.35867E1,-1.061022E1,-4.7672707E-1,-2.8795555E-1,-5.7517546E-1,8.243496E-2,1.3153235E1,2.53639E1,-9.128777E0,-7.4244304E0,-4.7928107E-1,-2.261376E-1,-7.4362034E-1,5.9731405E-2,2.486712E-2,8.528839E-2,-3.988074E0,-6.059361E0,-4.424703E0,-3.4446523E0,-4.929138E-1,6.4977723E-1,-2.4168375E0,-6.634399E-1,-4.1992188E-2,9.9484664E-1,2.569108E0,9.227592E-1],"split_indices":[0,0,0,0,0,0,0,0,3,0,0,0,0,0,0,0,0,0,0,1,0,0,0,0,0,1,0,1,3,0,3,0,0,0,0,0,0,0,0,0,0,0,0],"split_type":[0,0,0,0,0,0,0,0,0,0,0,0,0,0,0,0,0,0,0,0,0,0,0,0,0,0,0,0,0,0,0,0,0,0,0,0,0,0,0,0,0,0,0],"sum_hessian":[1.328E3,1.06E3,2.68E2,3.19E2,7.41E2,1.83E2,8.5E1,2.03E2,1.16E2,6.2E2,1.21E2,1.06E2,7.7E1,7.5E1,1.28E2,6.6E1,5E1,2.87E2,3.33E2,3.5E1,8.6E1,4E0,1.02E2,1.47E2,1.4E2,2.19E2,1.14E2,2E0,3.3E1,4.2E1,4.4E1,1.1E1,2.08E2,7.1E1,4.3E1,1E0,1E0,3E1,3E0,1E1,3.2E1,3.8E1,6E0],"tree_param":{"num_deleted":"0","num_feature":"7","num_nodes":"43","size_leaf_vector":"1"}},{"base_weights":[-4.99501E-1,-1.584621E2,6.384789E2,-2.875859E2,-1.06539345E2,5.169492E2,7.959838E2,-1.5603217E1,-2.4437965E2,-1.2897157E2,1.3482187E1,2.1855621E1,2.8256662E1,3.6881035E1,4.6740665E1,-1.3057387E1,-1.0154435E1,-1.6060556E2,-1.0089625E2,-3.950837E1,3.1191156E1,-8.966952E0,-1.4529494E2,-1.135762E2,-7.756947E1,-1.6033587E1,-4.4500973E1,1.5089005E1,4.5013676E1,-7.2824197E0,-2.121338E0,-6.080369E0,-5.1986427E0,-4.233674E0,-3.24115E0,6.335327E-1,-1.1464702E0,-2.3064437E0,-1.3578491E-1,7.475364E-2,9.5216244E-1,1.9053227E0,3.2705383E0],"categories":[],"categories_nodes":[],"categories_segments":[],"categories_sizes":[],"default_left":[0,0,0,0,0,0,0,0,0,0,0,0,0,0,0,0,0,0,0,0,0,0,0,0,0,0,0,0,0,0,0,0,0,0,0,0,0,0,0,0,0,0,0],"id":20,"left_children":[1,3,5,7,9,11,13,-1,15,17,19,-1,-1,-1,-1,-1,-1,21,23,25,27,-1,29,31,33,35,37,39,41,-1,-1,-1,-1,-1,-1,-1,-1,-1,-1,-1,-1,-1,-1],"loss_changes":[1.3545458E8,7.183362E6,4.68016E6,2.49484E5,2.072157E6,3.41544E5,2.34152E5,0E0,2.72785E4,5.59307E5,1.15718086E5,0E0,0E0,0E0,0E0,0E0,0E0,6.0849E4,9.353075E4,2.9196953E3,1.9797438E4,0E0,7.425E1,4.47825E3,5.8300625E3,1.6761046E3,1.5752812E3,2.3366924E3,4.4109062E3,0E0,0E0,0E0,0E0,0E0,0E0,0E0,0E0,0E0,0E0,0E0,0E0,0E0,0E0],"parents":[2147483647,0,0,1,1,2,2,3,3,4,4,5,5,6,6,8,8,9,9,10,10,17,17,18,18,19,19,20,20,22,22,23,23,24,24,25,25,26,26,27,27,28,28],"right_children":[2,4,6,8,10,12,14,-1,16,18,20,-1,-1,-1,-1,-1,-1,22,24,26,28,-1,30,32,34,36,38,40,42,-1,-1,-1,-1,-1,-1,-1,-1,-1,-1,-1,-1,-1,-1],"split_conditions":[1.2124236E0,-5.718788E-1,1.8709393E0,-8.3106905E-1,-1.7829207E-1,1.4649037E0,2.5161688E0,-1.5603217E1,-6.4838606E-1,-3.8373372E-1,-3.5101555E-2,2.1855621E1,2.8256662E1,3.6881035E1,4.6740665E1,-1.3057387E1,-1.0154435E1,-5.0262034E-1,-2.8795555E-1,-1.7899299E-1,8.243496E-2,-8.966952E0,1.3989009E0,-3.4645382E-1,-2.261376E-1,-8.685307E-1,2.6334094E-2,2.486712E-2,8.110061E-1,-7.2824197E0,-2.121338E0,-6.080369E0,-5.1986427E0,-4.233674E0,-3.24115E0,6.335327E-1,-1.1464702E0,-2.3064437E0,-1.3578491E-1,7.475364E-2,9.5216244E-1,1.9053227E0,3.2705383E0],"split_indices":[0,0,0,0,0,0,0,0,4,0,0,0,0,0,0,0,0,0,0,4,0,0,6,0,0,6,5,0,6,0,0,0,0,0,0,0,0,0,0,0,0,0,0],"split_type":[0,0,0,0,0,0,0,0,0,0,0,0,0,0,0,0,0,0,0,0,0,0,0,0,0,0,0,0,0,0,0,0,0,0,0,0,0,0,0,0,0,0,0],"sum_hessian":[1.34E3,1.075E3,2.65E2,3.07E2,7.68E2,1.52E2,1.13E2,1.92E2,1.15E2,6.47E2,1.21E2,6.1E1,9.1E1,8.4E1,2.9E1,7.8E1,3.7E1,3.02E2,3.45E2,3E1,9.1E1,1.31E2,1.71E2,2.21E2,1.24E2,6E0,2.4E1,4.3E1,4.8E1,1.7E2,1E0,1.14E2,1.07E2,7.6E1,4.8E1,1E0,5E0,2.3E1,1E0,1E1,3.3E1,3.8E1,1E1],"tree_param":{"num_deleted":"0","num_feature":"7","num_nodes":"43","size_leaf_vector":"1"}},{"base_weights":[-5.1793847E0,-1.5134773E2,6.041623E2,-2.6319458E2,-9.6542274E1,4.92755E2,7.586227E2,-2.826291E2,-9.483251E0,-1.1666572E2,2.2804781E1,1.9730282E1,2.6408964E1,3.4861973E1,4.4132946E1,-1.5630182E1,-1.3137308E1,-1.3715166E2,-8.321742E1,-1.6173386E1,3.4072327E1,-7.8811326E0,-6.1108065E0,-9.27812E1,-3.0788803E0,-2.7933088E1,2.6381615E-1,1.4920621E1,4.0526745E1,-4.8963466E0,-4.0692134E0,1.1051025E-1,-1.6570578E0,-7.7098596E-1,2.731174E-1,1.5406764E0,4.838501E-1,1.7394723E0,3.0288417E0],"categories":[],"categories_nodes":[],"categories_segments":[],"categories_sizes":[],"default_left":[0,0,0,0,0,0,0,0,0,0,0,0,0,0,0,0,0,0,0,0,0,0,0,0,0,0,0,0,0,0,0,0,0,0,0,0,0,0,0],"id":21,"left_children":[1,3,5,7,9,11,13,15,-1,17,19,-1,-1,-1,-1,-1,-1,21,23,25,27,-1,-1,29,-1,31,33,35,37,-1,-1,-1,-1,-1,-1,-1,-1,-1,-1],"loss_changes":[1.17391976E8,6.490586E6,4.014224E6,4.4512E5,1.719858E6,3.16584E5,1.84024E5,8.1162E4,0E0,4.07941E5,4.6226645E4,0E0,0E0,0E0,0E0,0E0,0E0,9.63075E4,4.2922E4,4.646488E3,9.407977E3,0E0,0E0,1.47225E3,0E0,2.271084E3,9.810728E2,1.5352168E3,4.7945703E3,0E0,0E0,0E0,0E0,0E0,0E0,0E0,0E0,0E0,0E0],"parents":[2147483647,0,0,1,1,2,2,3,3,4,4,5,5,6,6,7,7,9,9,10,10,17,17,18,18,19,19,20,20,23,23,25,25,26,26,27,27,28,28],"right_children":[2,4,6,8,10,12,14,16,-1,18,20,-1,-1,-1,-1,-1,-1,22,24,26,28,-1,-1,30,-1,32,34,36,38,-1,-1,-1,-1,-1,-1,-1,-1,-1,-1],"split_conditions":[1.2124236E0,-5.472584E-1,2.069537E0,-7.917021E-1,-1.4568958E-1,1.4168276E0,2.4820395E0,-9.259395E-1,-9.483251E0,-3.4645382E-1,2.486712E-2,1.9730282E1,2.6408964E1,3.4861973E1,4.4132946E1,-1.5630182E1,-1.3137308E1,-4.336937E-1,-2.3563556E-1,-3.5101555E-2,6.468968E-2,-7.8811326E0,-6.1108065E0,-2.8361556E-1,-3.0788803E0,-5.7517546E-1,-4.9189952E-1,5.53139E-2,1.5367705E-1,-4.8963466E0,-4.0692134E0,1.1051025E-1,-1.6570578E0,-7.7098596E-1,2.731174E-1,1.5406764E0,4.838501E-1,1.7394723E0,3.0288417E0],"split_indices":[0,0,3,0,0,0,0,0,0,0,0,0,0,0,0,0,0,0,0,0,0,0,0,0,0,1,1,3,0,0,0,0,0,0,0,0,0,0,0],"split_type":[0,0,0,0,0,0,0,0,0,0,0,0,0,0,0,0,0,0,0,0,0,0,0,0,0,0,0,0,0,0,0,0,0,0,0,0,0,0,0],"sum_hessian":[1.316E3,1.062E3,2.54E2,3.48E2,7.14E2,1.5E2,1.04E2,2.73E2,7.5E1,6.11E2,1.03E2,4.3E1,1.07E2,7.4E1,3E1,1.03E2,1.7E2,3.77E2,2.34E2,2.3E1,8E1,1.55E2,2.22E2,1.6E2,7.4E1,1.3E1,1E1,2.1E1,5.9E1,1.05E2,5.5E1,2E0,1.1E1,2E0,8E0,4E0,1.7E1,4.8E1,1.1E1],"tree_param":{"num_deleted":"0","num_feature":"7","num_nodes":"39","size_leaf_vector":"1"}},{"base_weights":[-1.7816496E0,-1.4394267E2,5.690397E2,-2.5150357E2,-9.177743E1,4.8385318E2,3.7506687E1,-2.6941693E2,-8.954155E0,-1.1108859E2,2.0549635E1,4.2773703E2,2.8238462E1,-1.5193875E1,-1.2624666E1,-1.4042363E2,-8.952176E1,-2.2456E0,3.6395454E1,1.252851E1,2.1773724E1,-7.555013E0,-6.1181927E0,-1.01467545E2,-6.701647E1,-2.7679663E1,5.0854354E0,3.2312286E1,3.1930716E0,-3.1627252E0,-5.146514E0,-3.67043E0,-2.7221425E0,-1.717811E0,-7.0659304E-1,9.6129E-1,4.3185424E-2,8.331899E-1,1.7883583E0],"categories":[],"categories_nodes":[],"categories_segments":[],"categories_sizes":[],"default_left":[0,0,0,0,0,0,0,0,0,0,0,0,0,0,0,0,0,0,0,0,0,0,0,0,0,0,0,0,0,0,0,0,0,0,0,0,0,0,0],"id":22,"left_children":[1,3,5,7,9,11,-1,13,-1,15,17,19,-1,-1,-1,21,23,25,27,-1,-1,-1,-1,29,31,33,35,37,-1,-1,-1,-1,-1,-1,-1,-1,-1,-1,-1],"loss_changes":[1.06629944E8,5.879628E6,3.678856E6,3.96724E5,1.54239E6,5.80296E5,0E0,8.2486E4,0E0,3.70824E5,3.8008695E4,4.3042E4,0E0,0E0,0E0,3.0679E4,8.7833E4,8.344916E3,4.889672E3,0E0,0E0,0E0,0E0,6.23325E3,6.05E3,4.1900928E2,2.0727808E3,2.4315469E3,0E0,0E0,0E0,0E0,0E0,0E0,0E0,0E0,0E0,0E0,0E0],"parents":[2147483647,0,0,1,1,2,2,3,3,4,4,5,5,7,7,9,9,10,10,11,11,15,15,16,16,17,17,18,18,23,23,24,24,25,25,26,26,27,27],"right_children":[2,4,6,8,10,12,-1,14,-1,16,18,20,-1,-1,-1,22,24,26,28,-1,-1,-1,-1,30,32,34,36,38,-1,-1,-1,-1,-1,-1,-1,-1,-1,-1,-1],"split_conditions":[1.2124236E0,-5.472584E-1,2.3284333E0,-8.016235E-1,-1.4568958E-1,1.7376562E0,3.7506687E1,-9.48367E-1,-8.954155E0,-3.8373372E-1,5.7747997E-2,1.2894096E0,2.8238462E1,-1.5193875E1,-1.2624666E1,-4.336937E-1,-2.8223962E-1,-4.9193513E-2,1.8039933E-1,1.252851E1,2.1773724E1,-7.555013E0,-6.1181927E0,-4.7928107E-1,-2.1793017E-1,-2.55744E-1,5.9731405E-2,6.065888E-2,3.1930716E0,-3.1627252E0,-5.146514E0,-3.67043E0,-2.7221425E0,-1.717811E0,-7.0659304E-1,9.6129E-1,4.3185424E-2,8.331899E-1,1.7883583E0],"split_indices":[0,0,5,3,0,0,0,0,0,0,0,0,0,0,0,0,0,0,0,0,0,0,0,1,0,1,3,5,0,0,0,0,0,0,0,0,0,0,0],"split_type":[0,0,0,0,0,0,0,0,0,0,0,0,0,0,0,0,0,0,0,0,0,0,0,0,0,0,0,0,0,0,0,0,0,0,0,0,0,0,0],"sum_hessian":[1.312E3,1.051E3,2.61E2,3.42E2,7.09E2,1.8E2,8.1E1,2.72E2,7E1,6.05E2,1.04E2,1.1E2,7E1,8.4E1,1.88E2,2.54E2,3.51E2,4.3E1,6.1E1,6E0,1.04E2,1.55E2,9.9E1,2.27E2,1.24E2,9E0,3.4E1,5.5E1,6E0,1E1,2.17E2,7.9E1,4.5E1,5E0,4E0,7E0,2.7E1,1.1E1,4.4E1],"tree_param":{"num_deleted":"0","num_feature":"7","num_nodes":"39","size_leaf_vector":"1"}},{"base_weights":[4.68536E0,-1.3457574E2,5.493794E2,-2.4730716E2,-9.199898E1,4.6980286E2,3.619824E1,-1.3439372E1,-2.0917213E2,-1.1122946E2,6.392067E0,4.102404E2,2.7046396E1,-1.1151034E1,-8.809801E0,-1.3759488E2,-8.790419E1,-3.7042175E1,2.4659946E1,1.1991572E1,2.0899458E1,-7.880246E0,-1.2623117E2,-1.0058123E2,-7.1715675E1,-4.2576202E1,-1.7289282E1,1.11529045E1,3.6780155E1,-6.3257747E0,-1.7625793E0,-1.9294754E0,-5.0682597E0,-4.019863E0,-3.081677E0,-5.5059206E-1,-2.165511E0,9.008586E-2,-1.1143624E0,1.5761586E0,3.8665223E-1,1.9655873E0,8.3489907E-1],"categories":[],"categories_nodes":[],"categories_segments":[],"categories_sizes":[],"default_left":[0,0,0,0,0,0,0,0,0,0,0,0,0,0,0,0,0,0,0,0,0,0,0,0,0,0,0,0,0,0,0,0,0,0,0,0,0,0,0,0,0,0,0],"id":23,"left_children":[1,3,5,7,9,11,-1,-1,13,15,17,19,-1,-1,-1,21,23,25,27,-1,-1,-1,29,31,33,35,37,39,41,-1,-1,-1,-1,-1,-1,-1,-1,-1,-1,-1,-1,-1,-1],"loss_changes":[1.0096067E8,5.06497E6,3.424856E6,1.81332E5,1.4595255E6,5.78768E5,0E0,0E0,1.04815E4,3.84568E5,1.016818E5,4.1042E4,0E0,0E0,0E0,4.8549E4,6.35885E4,3.4177812E3,1.4323527E4,0E0,0E0,0E0,6.36E2,5.370875E3,8.611875E3,1.9497266E2,9.9431665E2,2.8214214E3,1.733043E3,0E0,0E0,0E0,0E0,0E0,0E0,0E0,0E0,0E0,0E0,0E0,0E0,0E0,0E0],"parents":[2147483647,0,0,1,1,2,2,3,3,4,4,5,5,8,8,9,9,10,10,11,11,15,15,16,16,17,17,18,18,22,22,23,23,24,24,25,25,26,26,27,27,28,28],"right_children":[2,4,6,8,10,12,-1,-1,14,16,18,20,-1,-1,-1,22,24,26,28,-1,-1,-1,30,32,34,36,38,40,42,-1,-1,-1,-1,-1,-1,-1,-1,-1,-1,-1,-1,-1,-1],"split_conditions":[1.2124236E0,-5.718788E-1,2.2978384E0,-8.3106905E-1,-1.8474911E-1,1.7376562E0,3.619824E1,-1.3439372E1,-8.016235E-1,-3.8373372E-1,-3.5101555E-2,1.2894096E0,2.7046396E1,-1.1151034E1,-8.809801E0,-5.199617E-1,-3.085968E-1,4.0523443E-2,8.243496E-2,1.1991572E1,2.0899458E1,-7.880246E0,1.3989009E0,-5.1142174E-1,-2.555588E-1,-5.6782836E-1,-5.7517546E-1,4.5393024E-2,8.528839E-2,-6.3257747E0,-1.7625793E0,-1.9294754E0,-5.0682597E0,-4.019863E0,-3.081677E0,-5.5059206E-1,-2.165511E0,9.008586E-2,-1.1143624E0,1.5761586E0,3.8665223E-1,1.9655873E0,8.3489907E-1],"split_indices":[0,0,0,0,0,0,0,0,3,0,0,0,0,0,0,0,0,3,0,0,0,0,6,1,0,1,1,3,3,0,0,0,0,0,0,0,0,0,0,0,0,0,0],"split_type":[0,0,0,0,0,0,0,0,0,0,0,0,0,0,0,0,0,0,0,0,0,0,0,0,0,0,0,0,0,0,0,0,0,0,0,0,0,0,0,0,0,0,0],"sum_hessian":[1.329E3,1.059E3,2.7E2,2.89E2,7.7E2,1.88E2,8.2E1,1.81E2,1.08E2,6.44E2,1.26E2,1.06E2,8.2E1,7.2E1,3.6E1,3E2,3.44E2,3.7E1,8.9E1,6E0,1E2,1.04E2,1.96E2,1.9E2,1.54E2,2.8E1,9E0,4.3E1,4.6E1,1.95E2,1E0,3E0,1.87E2,7.9E1,7.5E1,1E0,2.7E1,2E0,7E0,5E0,3.8E1,4E1,6E0],"tree_param":{"num_deleted":"0","num_feature":"7","num_nodes":"43","size_leaf_vector":"1"}},{"base_weights":[-3.525483E-1,-1.2934448E2,5.2145764E2,-2.3587466E2,-8.783296E1,4.4289328E2,3.4569458E1,-1.2884349E1,-2.0616136E2,-1.0919203E2,-4.6652756E0,3.8307E2,2.5553751E1,-1.0793827E1,-8.377247E0,-1.3599173E2,-8.995903E1,-4.259352E1,2.4886309E1,1.5814847E1,2.038848E1,-7.5880027E0,-1.2600276E2,-5.042646E0,-7.448987E1,-4.836092E1,-2.1768045E1,9.30562E0,3.77333E1,-6.3179216E0,-1.718515E0,-3.9201353E0,-3.1998522E0,-2.007308E0,-2.8843753E0,8.708293E-2,-1.2509391E0,6.3154787E-1,-4.5627442E-1,1.9750814E0,3.9820862E-1],"categories":[],"categories_nodes":[],"categories_segments":[],"categories_sizes":[],"default_left":[0,0,0,0,0,0,0,0,0,0,0,0,0,0,0,0,0,0,0,0,0,0,0,0,0,0,0,0,0,0,0,0,0,0,0,0,0,0,0,0,0],"id":24,"left_children":[1,3,5,7,9,11,-1,-1,13,15,17,19,-1,-1,-1,21,23,25,27,-1,-1,-1,29,-1,31,33,35,37,39,-1,-1,-1,-1,-1,-1,-1,-1,-1,-1,-1,-1],"loss_changes":[8.999268E7,4.719912E6,3.23168E6,1.4131E5,1.3726355E6,5.54732E5,0E0,0E0,1.3353E4,3.047615E5,1.7927352E5,3.9249E4,0E0,0E0,0E0,2.1043E4,5.332275E4,7.354883E3,1.7663707E4,0E0,0E0,0E0,9.365E2,0E0,1.2641875E3,1.8213125E3,1.3427817E3,2.6894287E3,2.2648438E3,0E0,0E0,0E0,0E0,0E0,0E0,0E0,0E0,0E0,0E0,0E0,0E0],"parents":[2147483647,0,0,1,1,2,2,3,3,4,4,5,5,8,8,9,9,10,10,11,11,15,15,16,16,17,17,18,18,22,22,24,24,25,25,26,26,27,27,28,28],"right_children":[2,4,6,8,10,12,-1,-1,14,16,18,20,-1,-1,-1,22,24,26,28,-1,-1,-1,30,-1,32,34,36,38,40,-1,-1,-1,-1,-1,-1,-1,-1,-1,-1,-1,-1],"split_conditions":[1.2124236E0,-5.759652E-1,2.2978384E0,-8.461974E-1,-2.1983705E-1,1.721436E0,3.4569458E1,-1.2884349E1,-8.005104E-1,-4.0490592E-1,-3.5101555E-2,1.3818367E0,2.5553751E1,-1.0793827E1,-8.377247E0,-5.2775925E-1,-3.298162E-1,-1.4568958E-1,8.243496E-2,1.5814847E1,2.038848E1,-7.5880027E0,1.2105044E0,-5.042646E0,-2.5799924E-1,-1.7029215E-1,-5.7517546E-1,-6.119398E-2,1.3591881E0,-6.3179216E0,-1.718515E0,-3.9201353E0,-3.1998522E0,-2.007308E0,-2.8843753E0,8.708293E-2,-1.2509391E0,6.3154787E-1,-4.5627442E-1,1.9750814E0,3.9820862E-1],"split_indices":[0,0,0,0,0,0,0,0,4,0,0,0,0,0,0,0,0,0,0,0,0,0,6,0,0,1,1,4,2,0,0,0,0,0,0,0,0,0,0,0,0],"split_type":[0,0,0,0,0,0,0,0,0,0,0,0,0,0,0,0,0,0,0,0,0,0,0,0,0,0,0,0,0,0,0,0,0,0,0,0,0,0,0,0,0],"sum_hessian":[1.335E3,1.071E3,2.64E2,2.99E2,7.72E2,1.83E2,8.1E1,1.68E2,1.31E2,6.14E2,1.58E2,1.01E2,8.2E1,1.01E2,3E1,2.54E2,3.6E2,6.9E1,8.9E1,3.1E1,7E1,9.3E1,1.61E2,2.08E2,1.52E2,5.3E1,1.6E1,4.1E1,4.8E1,1.6E2,1E0,1.06E2,4.6E1,3.1E1,2.2E1,2E0,1.4E1,3.5E1,6E0,4.5E1,3E0],"tree_param":{"num_deleted":"0","num_feature":"7","num_nodes":"41","size_leaf_vector":"1"}},{"base_weights":[2.1534963E0,-1.22040245E2,4.9199518E2,-2.078531E2,-7.463369E1,4.0373965E2,6.158941E2,-2.3049545E2,-7.575827E0,-9.119894E1,1.9853395E1,3.3939362E2,2.1947668E1,2.6946842E1,3.4023952E1,-1.315802E1,-1.0793625E1,-1.06583694E2,-6.3973843E1,-1.2344134E1,2.7283125E1,9.887851E0,1.7425419E1,-1.2061328E2,-4.7565994E0,-3.6072388E0,-4.8605125E1,-2.0702543E1,2.7812958E0,2.2912582E1,5.4204666E1,-6.0472045E0,-1.6755524E0,-3.0052576E0,-2.190079E0,8.418172E-2,-1.2462907E0,-7.6253456E-1,5.6668705E-1,7.477274E-1,1.4651525E0,3.0574167E0,1.3383087E0],"categories":[],"categories_nodes":[],"categories_segments":[],"categories_sizes":[],"default_left":[0,0,0,0,0,0,0,0,0,0,0,0,0,0,0,0,0,0,0,0,0,0,0,0,0,0,0,0,0,0,0,0,0,0,0,0,0,0,0,0,0,0,0],"id":25,"left_children":[1,3,5,7,9,11,13,15,-1,17,19,21,-1,-1,-1,-1,-1,23,25,27,29,-1,-1,31,-1,-1,33,35,37,39,41,-1,-1,-1,-1,-1,-1,-1,-1,-1,-1,-1,-1],"loss_changes":[8.091012E7,4.300733E6,2.692792E6,4.45974E5,1.0739738E6,2.1356E5,1.79996E5,7.0725E4,0E0,2.373715E5,2.4976336E4,9.83E3,0E0,0E0,0E0,0E0,0E0,4.8132E4,2.324125E4,2.5860703E3,8.641613E3,0E0,0E0,6.4375E2,0E0,0E0,1.6208594E3,1.2710234E3,1.4065879E3,3.3250977E3,4.590547E2,0E0,0E0,0E0,0E0,0E0,0E0,0E0,0E0,0E0,0E0,0E0,0E0],"parents":[2147483647,0,0,1,1,2,2,3,3,4,4,5,5,6,6,7,7,9,9,10,10,11,11,17,17,18,18,19,19,20,20,23,23,26,26,27,27,28,28,29,29,30,30],"right_children":[2,4,6,8,10,12,14,16,-1,18,20,22,-1,-1,-1,-1,-1,24,26,28,30,-1,-1,32,-1,-1,34,36,38,40,42,-1,-1,-1,-1,-1,-1,-1,-1,-1,-1,-1,-1],"split_conditions":[1.2124236E0,-5.346805E-1,1.8709393E0,-7.917021E-1,-2.6882533E-2,1.4649037E0,2.390913E0,-9.48367E-1,-7.575827E0,-3.3408222E-1,2.486712E-2,1.2894096E0,2.1947668E1,2.6946842E1,3.4023952E1,-1.315802E1,-1.0793625E1,-4.0490592E-1,-2.3050855E-1,-8.216171E-1,8.110061E-1,9.887851E0,1.7425419E1,1.2105044E0,-4.7565994E0,-3.6072388E0,-2.5410292E-1,-5.7517546E-1,-4.9189952E-1,8.243496E-2,1.2201517E-1,-6.0472045E0,-1.6755524E0,-3.0052576E0,-2.190079E0,8.418172E-2,-1.2462907E0,-7.6253456E-1,5.6668705E-1,7.477274E-1,1.4651525E0,3.0574167E0,1.3383087E0],"split_indices":[0,0,0,0,5,0,0,0,0,0,0,0,0,0,0,0,0,0,0,2,6,0,0,6,0,0,5,1,1,0,5,0,0,0,0,0,0,0,0,0,0,0,0],"split_type":[0,0,0,0,0,0,0,0,0,0,0,0,0,0,0,0,0,0,0,0,0,0,0,0,0,0,0,0,0,0,0,0,0,0,0,0,0,0,0,0,0,0,0],"sum_hessian":[1.328E3,1.06E3,2.68E2,3.76E2,6.84E2,1.59E2,1.09E2,2.66E2,1.1E2,5.82E2,1.02E2,6E1,9.9E1,5.4E1,5.5E1,7.7E1,1.89E2,3.7E2,2.12E2,1.9E1,8.3E1,5E0,5.5E1,1.62E2,2.08E2,1.36E2,7.6E1,1.2E1,7E0,7.3E1,1E1,1.61E2,1E0,1.9E1,5.7E1,2E0,1E1,2E0,5E0,3.4E1,3.9E1,7E0,3E0],"tree_param":{"num_deleted":"0","num_feature":"7","num_nodes":"43","size_leaf_vector":"1"}},{"base_weights":[-1.8827324E-1,-1.1717186E2,4.6862637E2,-1.9611641E2,-7.225297E1,3.851669E2,5.94927E2,-2.1923749E2,-7.2143426E0,-8.954587E1,6.1477504E0,3.24941E2,2.1190739E1,2.7425268E1,3.534998E1,-1.2207772E1,-1.0145298E1,-1.0823641E2,-7.164767E1,-2.7176872E1,2.5474142E1,9.475852E0,1.6634039E1,-5.9465837E0,-4.8988934E0,-8.0484665E1,-5.7850697E1,-3.6388885E1,-1.2170911E1,2.0798033E1,4.9849243E1,-2.3980024E0,-4.0988555E0,-3.1890192E0,-2.47994E0,-1.2500293E0,-2.0233762E0,-2.0963745E-1,-1.1308396E0,1.1156516E0,-1.3767822E-1,1.0871445E0,2.8401077E0],"categories":[],"categories_nodes":[],"categories_segments":[],"categories_sizes":[],"default_left":[0,0,0,0,0,0,0,0,0,0,0,0,0,0,0,0,0,0,0,0,0,0,0,0,0,0,0,0,0,0,0,0,0,0,0,0,0,0,0,0,0,0,0],"id":26,"left_children":[1,3,5,7,9,11,13,15,-1,17,19,21,-1,-1,-1,-1,-1,23,25,27,29,-1,-1,-1,-1,31,33,35,37,39,41,-1,-1,-1,-1,-1,-1,-1,-1,-1,-1,-1,-1],"loss_changes":[7.305177E7,3.765974E6,2.574752E6,4.30931E5,9.238335E5,2.41686E5,1.5328E5,5.8301E4,0E0,1.789115E5,8.055384E4,8.2255E3,0E0,0E0,0E0,0E0,0E0,1.808075E4,3.0458E4,5.9159297E3,7.967703E3,0E0,0E0,0E0,0E0,4.466E3,2.5125938E3,2.8885156E2,1.488613E3,2.4877246E3,1.1100078E3,0E0,0E0,0E0,0E0,0E0,0E0,0E0,0E0,0E0,0E0,0E0,0E0],"parents":[2147483647,0,0,1,1,2,2,3,3,4,4,5,5,6,6,7,7,9,9,10,10,11,11,17,17,18,18,19,19,20,20,25,25,26,26,27,27,28,28,29,29,30,30],"right_children":[2,4,6,8,10,12,14,16,-1,18,20,22,-1,-1,-1,-1,-1,24,26,28,30,-1,-1,-1,-1,32,34,36,38,40,42,-1,-1,-1,-1,-1,-1,-1,-1,-1,-1,-1,-1],"split_conditions":[1.2124236E0,-5.346805E-1,1.8885024E0,-8.005104E-1,-1.8474911E-1,1.4872677E0,2.5161688E0,-9.259395E-1,-7.2143426E0,-3.6353436E-1,2.486712E-2,1.2894096E0,2.1190739E1,2.7425268E1,3.534998E1,-1.2207772E1,-1.0145298E1,-4.336937E-1,-2.8795555E-1,4.0523443E-2,1.5367705E-1,9.475852E0,1.6634039E1,-5.9465837E0,-4.8988934E0,-4.7928107E-1,-2.3563556E-1,-2.7859828E-1,-5.3282622E-2,-6.51729E-2,5.2731985E-1,-2.3980024E0,-4.0988555E0,-3.1890192E0,-2.47994E0,-1.2500293E0,-2.0233762E0,-2.0963745E-1,-1.1308396E0,1.1156516E0,-1.3767822E-1,1.0871445E0,2.8401077E0],"split_indices":[0,0,0,4,0,0,0,0,0,0,0,0,0,0,0,0,0,0,0,3,0,0,0,0,0,1,0,3,4,4,2,0,0,0,0,0,0,0,0,0,0,0,0],"split_type":[0,0,0,0,0,0,0,0,0,0,0,0,0,0,0,0,0,0,0,0,0,0,0,0,0,0,0,0,0,0,0,0,0,0,0,0,0,0,0,0,0,0,0],"sum_hessian":[1.33E3,1.065E3,2.65E2,3.85E2,6.8E2,1.62E2,1.03E2,2.64E2,1.21E2,5.57E2,1.23E2,6.7E1,9.5E1,7.7E1,2.6E1,9.9E1,1.65E2,2.7E2,2.87E2,4.5E1,7.8E1,5E0,6.2E1,1.27E2,1.43E2,1.72E2,1.15E2,2.7E1,1.8E1,6.7E1,1.1E1,9E0,1.63E2,6.3E1,5.2E1,9E0,1.8E1,1.1E1,7E0,6.3E1,4E0,3E0,8E0],"tree_param":{"num_deleted":"0","num_feature":"7","num_nodes":"43","size_leaf_vector":"1"}},{"base_weights":[-1.0496902E-1,-1.099093E2,4.4665656E2,-1.8556937E2,-6.8070526E1,3.4397842E2,5.4217017E2,-2.0811905E2,-6.818065E0,-8.3093506E1,1.5198063E1,1.3703898E1,1.8164654E1,2.3698969E1,3.0685734E1,-1.1996377E1,-9.796763E0,-9.855292E1,-6.1514748E1,-9.569646E0,2.3784111E1,-5.5603466E0,-4.5054755E0,-6.803194E1,-4.5748463E1,-2.1282837E1,-7.3859E-1,1.985634E1,4.6259743E1,-3.603234E0,-3.0050335E0,-2.693219E0,-2.0797393E0,-5.060659E-1,-1.3904724E0,-5.2708334E-1,4.573276E-1,1.0640805E0,-1.3217042E-1,1.0463761E0,2.6571693E0],"categories":[],"categories_nodes":[],"categories_segments":[],"categories_sizes":[],"default_left":[0,0,0,0,0,0,0,0,0,0,0,0,0,0,0,0,0,0,0,0,0,0,0,0,0,0,0,0,0,0,0,0,0,0,0,0,0,0,0,0,0],"id":27,"left_children":[1,3,5,7,9,11,13,15,-1,17,19,-1,-1,-1,-1,-1,-1,21,23,25,27,-1,-1,29,31,33,35,37,39,-1,-1,-1,-1,-1,-1,-1,-1,-1,-1,-1,-1],"loss_changes":[6.5146864E7,3.361818E6,2.382984E6,3.92169E5,8.6191125E5,7.4592E4,3.62852E5,5.2978E4,0E0,1.8842375E5,2.2769217E4,0E0,0E0,0E0,0E0,0E0,0E0,2.6092E4,2.2164562E4,2.8805964E3,6.0555E3,0E0,0E0,1.17025E3,2.8784375E2,5.926948E2,1.7438016E3,2.268957E3,8.0599805E2,0E0,0E0,0E0,0E0,0E0,0E0,0E0,0E0,0E0,0E0,0E0,0E0],"parents":[2147483647,0,0,1,1,2,2,3,3,4,4,5,5,6,6,7,7,9,9,10,10,17,17,18,18,19,19,20,20,23,23,24,24,25,25,26,26,27,27,28,28],"right_children":[2,4,6,8,10,12,14,16,-1,18,20,-1,-1,-1,-1,-1,-1,22,24,26,28,-1,-1,30,32,34,36,38,40,-1,-1,-1,-1,-1,-1,-1,-1,-1,-1,-1,-1],"split_conditions":[1.2124236E0,-5.317053E-1,1.7917594E0,-7.917021E-1,-1.4568958E-1,1.3818367E0,2.3778784E0,-9.5711523E-1,-6.818065E0,-3.4645382E-1,2.486712E-2,1.3703898E1,1.8164654E1,2.3698969E1,3.0685734E1,-1.1996377E1,-9.796763E0,-4.2167184E-1,-2.3563556E-1,-4.9193513E-2,1.5367705E-1,-5.5603466E0,-4.5054755E0,-2.8795555E-1,-2.5410292E-1,-1.3312154E0,-8.216171E-1,-6.51729E-2,5.2731985E-1,-3.603234E0,-3.0050335E0,-2.693219E0,-2.0797393E0,-5.060659E-1,-1.3904724E0,-5.2708334E-1,4.573276E-1,1.0640805E0,-1.3217042E-1,1.0463761E0,2.6571693E0],"split_indices":[0,0,0,0,0,0,0,0,0,0,0,0,0,0,0,0,0,0,0,0,0,0,0,0,5,2,2,4,2,0,0,0,0,0,0,0,0,0,0,0,0],"split_type":[0,0,0,0,0,0,0,0,0,0,0,0,0,0,0,0,0,0,0,0,0,0,0,0,0,0,0,0,0,0,0,0,0,0,0,0,0,0,0,0,0],"sum_hessian":[1.326E3,1.065E3,2.61E2,3.78E2,6.87E2,1.28E2,1.33E2,2.57E2,1.21E2,5.82E2,1.05E2,3.1E1,9.7E1,7.2E1,6.1E1,6.6E1,1.91E2,3.37E2,2.45E2,2.7E1,7.8E1,1.3E2,2.07E2,1.71E2,7.4E1,1.1E1,1.6E1,6.8E1,1E1,1.08E2,6.3E1,2.1E1,5.3E1,5E0,6E0,8E0,8E0,6.4E1,4E0,3E0,7E0],"tree_param":{"num_deleted":"0","num_feature":"7","num_nodes":"41","size_leaf_vector":"1"}},{"base_weights":[1.2303727E0,-1.0554538E2,4.2714682E2,-1.9626802E2,-7.419667E1,3.5569574E2,5.5369104E2,-1.099417E1,-9.073334E0,-8.672186E1,1.4973164E1,1.5659439E1,2.0139463E1,2.4825302E1,3.0499454E1,-1.156331E2,-7.148908E1,1.9721304E1,-1.5602644E1,-6.3730145E0,-1.0463862E2,-7.718133E1,-4.9384624E1,1.2508707E1,3.300828E1,-2.067061E1,2.2349243E0,-5.376947E0,-3.752013E0,-4.3432727E0,-3.5356128E0,-3.370718E0,-2.0414944E0,9.2885226E-2,8.627607E-1,8.7460274E-1,1.9412569E0,-1.2491804E0,-5.2491456E-1,-5.23761E-1,4.9816895E-1],"categories":[],"categories_nodes":[],"categories_segments":[],"categories_sizes":[],"default_left":[0,0,0,0,0,0,0,0,0,0,0,0,0,0,0,0,0,0,0,0,0,0,0,0,0,0,0,0,0,0,0,0,0,0,0,0,0,0,0,0,0],"id":28,"left_children":[1,3,5,7,9,11,13,-1,-1,15,17,-1,-1,-1,-1,19,21,23,25,-1,27,29,31,33,35,37,39,-1,-1,-1,-1,-1,-1,-1,-1,-1,-1,-1,-1,-1,-1],"loss_changes":[6.148526E7,3.059842E6,2.25336E6,5.6922E4,9.00378E5,2.26168E5,6.198E3,0E0,0E0,3.02655E5,1.4825525E4,0E0,0E0,0E0,0E0,1.8131E4,5.469675E4,7.924633E3,1.3117998E3,0E0,3.175875E3,1.691175E4,1.2362953E4,2.9001396E3,2.0285391E3,2.2031982E2,4.9728766E2,0E0,0E0,0E0,0E0,0E0,0E0,0E0,0E0,0E0,0E0,0E0,0E0,0E0,0E0],"parents":[2147483647,0,0,1,1,2,2,3,3,4,4,5,5,6,6,9,9,10,10,15,15,16,16,17,17,18,18,20,20,21,21,22,22,23,23,24,24,25,25,26,26],"right_children":[2,4,6,8,10,12,14,-1,-1,16,18,-1,-1,-1,-1,20,22,24,26,-1,28,30,32,34,36,38,40,-1,-1,-1,-1,-1,-1,-1,-1,-1,-1,-1,-1,-1,-1],"split_conditions":[1.3007907E0,-5.650869E-1,2.3254087E0,-9.1511554E-1,3.5398412E-2,1.9019891E0,-8.943238E-2,-1.099417E1,-9.073334E0,-4.1881382E-1,-6.119398E-2,1.5659439E1,2.0139463E1,2.4825302E1,3.0499454E1,-1.2681888E-1,-2.7456933E-1,3.444635E-1,7.590701E-2,-6.3730145E0,-4.7261608E-1,-3.6300573E-1,-6.060475E-1,6.848513E-2,-1.6214198E-1,-2.6679605E-1,-4.9189952E-1,-5.376947E0,-3.752013E0,-4.3432727E0,-3.5356128E0,-3.370718E0,-2.0414944E0,9.2885226E-2,8.627607E-1,8.7460274E-1,1.9412569E0,-1.2491804E0,-5.2491456E-1,-5.23761E-1,4.9816895E-1],"split_indices":[3,3,3,4,3,4,2,0,0,5,4,0,0,0,0,2,5,2,3,0,5,5,2,5,4,1,1,0,0,0,0,0,0,0,0,0,0,0,0,0,0],"split_type":[0,0,0,0,0,0,0,0,0,0,0,0,0,0,0,0,0,0,0,0,0,0,0,0,0,0,0,0,0,0,0,0,0,0,0,0,0,0,0,0,0],"sum_hessian":[1.35E3,1.08E3,2.7E2,2.76E2,8.04E2,1.75E2,9.5E1,1.01E2,1.75E2,7.05E2,9.9E1,9.6E1,7.9E1,5.2E1,4.3E1,2.41E2,4.64E2,8.6E1,1.3E1,1.11E2,1.3E2,3.67E2,9.7E1,5.7E1,2.9E1,1E1,3E0,1.16E2,1.4E1,1.42E2,2.25E2,2.9E1,6.8E1,1.8E1,3.9E1,9E0,2E1,6E0,4E0,1E0,2E0],"tree_param":{"num_deleted":"0","num_feature":"7","num_nodes":"41","size_leaf_vector":"1"}},{"base_weights":[-1.1793835E0,-1.0032758E2,4.034261E2,-1.8007985E2,-6.6562805E1,3.4099838E2,5.2794196E2,-1.9739E2,-1.4950789E2,-8.28672E1,-3.2422056E0,3.01099E2,1.9788185E1,2.4027723E1,3.0596945E1,-1.0971545E1,-9.273941E0,-8.032238E0,-6.527345E0,-1.03236725E2,-6.837177E1,-3.2675713E1,1.8621319E1,1.0906098E1,1.5567752E1,-5.6713386E0,-9.542686E1,-3.8534944E0,-5.5690372E1,-3.738176E1,-1.6912304E1,7.584262E0,2.8773693E1,-4.7863555E0,-1.3047546E0,-2.9878376E0,-2.3595223E0,-1.5471439E0,-2.2746465E0,-9.494877E-1,4.081726E-1,5.124743E-1,-3.9837822E-1,1.616927E0,2.14631E-1],"categories":[],"categories_nodes":[],"categories_segments":[],"categories_sizes":[],"default_left":[0,0,0,0,0,0,0,0,0,0,0,0,0,0,0,0,0,0,0,0,0,0,0,0,0,0,0,0,0,0,0,0,0,0,0,0,0,0,0,0,0,0,0,0,0],"id":29,"left_children":[1,3,5,7,9,11,13,15,17,19,21,23,-1,-1,-1,-1,-1,-1,-1,25,27,29,31,-1,-1,-1,33,-1,35,37,39,41,43,-1,-1,-1,-1,-1,-1,-1,-1,-1,-1,-1,-1],"loss_changes":[5.2993468E7,2.845093E6,1.841016E6,1.37189E5,7.7093725E5,2.65414E5,4.4264E4,1.12815E4,3.9455E3,1.68329E5,9.971058E4,2.2296E4,0E0,0E0,0E0,0E0,0E0,0E0,0E0,8.67375E3,3.4314375E4,4.263883E3,9.75443E3,0E0,0E0,0E0,5.20375E2,0E0,2.2263438E3,1.2036641E3,1.0406138E3,1.9054238E3,3.8756602E3,0E0,0E0,0E0,0E0,0E0,0E0,0E0,0E0,0E0,0E0,0E0,0E0],"parents":[2147483647,0,0,1,1,2,2,3,3,4,4,5,5,6,6,7,7,8,8,9,9,10,10,11,11,19,19,20,20,21,21,22,22,26,26,28,28,29,29,30,30,31,31,32,32],"right_children":[2,4,6,8,10,12,14,16,18,20,22,24,-1,-1,-1,-1,-1,-1,-1,26,28,30,32,-1,-1,-1,34,-1,36,38,40,42,44,-1,-1,-1,-1,-1,-1,-1,-1,-1,-1,-1,-1],"split_conditions":[1.2124236E0,-5.60425E-1,2.1242146E0,-8.2458895E-1,-2.1793017E-1,1.7376562E0,2.5161688E0,-9.6061456E-1,-8.0240995E-1,-4.0028465E-1,-3.5101555E-2,1.3439103E0,1.9788185E1,2.4027723E1,3.0596945E1,-1.0971545E1,-9.273941E0,-8.032238E0,-6.527345E0,-5.1402074E-1,-3.2727945E-1,-1.4568958E-1,8.243496E-2,1.0906098E1,1.5567752E1,-5.6713386E0,1.1573895E0,-3.8534944E0,-2.5799924E-1,-1.7029215E-1,-3.8424432E-2,-6.119398E-2,-2.771469E-1,-4.7863555E0,-1.3047546E0,-2.9878376E0,-2.3595223E0,-1.5471439E0,-2.2746465E0,-9.494877E-1,4.081726E-1,5.124743E-1,-3.9837822E-1,1.616927E0,2.14631E-1],"split_indices":[0,0,0,0,0,0,0,0,3,0,0,0,0,0,0,0,0,0,0,0,0,0,0,0,0,0,6,0,0,1,4,4,1,0,0,0,0,0,0,0,0,0,0,0,0],"split_type":[0,0,0,0,0,0,0,0,0,0,0,0,0,0,0,0,0,0,0,0,0,0,0,0,0,0,0,0,0,0,0,0,0,0,0,0,0,0,0,0,0,0,0,0,0],"sum_hessian":[1.319E3,1.06E3,2.59E2,3.14E2,7.46E2,1.75E2,8.4E1,1.97E2,1.17E2,5.93E2,1.53E2,1.05E2,7E1,5.8E1,2.6E1,6.3E1,1.34E2,6.9E1,4.8E1,2.44E2,3.49E2,6.5E1,8.8E1,1.4E1,9.1E1,1E2,1.44E2,2.04E2,1.45E2,4.9E1,1.6E1,4.3E1,4.5E1,1.43E2,1E0,9.4E1,5.1E1,3E1,1.9E1,1.5E1,1E0,3.7E1,6E0,3.9E1,6E0],"tree_param":{"num_deleted":"0","num_feature":"7","num_nodes":"45","size_leaf_vector":"1"}},{"base_weights":[5.5894624E-2,-9.4882576E1,3.845383E2,-1.7960904E2,-6.659206E1,3.1155258E2,4.8036084E2,-9.696564E0,-8.040314E0,-7.8549355E1,1.622931E1,1.3800356E1,1.7336021E1,2.2350195E1,2.9132727E1,-1.05134995E2,-6.3900402E1,2.4846394E-1,2.4700233E1,-5.492911E0,-8.501413E1,-7.250083E1,-5.207236E1,6.083842E0,-1.2397897E0,2.8207483E1,4.599676E0,-4.799848E0,-3.5848083E0,-3.7617524E0,-1.9875202E0,-2.9426863E0,-1.7636718E0,7.5658906E-1,-5.460016E-1,8.7837803E-1,1.7545418E0,9.262309E-1,-5.045939E-1],"categories":[],"categories_nodes":[],"categories_segments":[],"categories_sizes":[],"default_left":[0,0,0,0,0,0,0,0,0,0,0,0,0,0,0,0,0,0,0,0,0,0,0,0,0,0,0,0,0,0,0,0,0,0,0,0,0,0,0],"id":30,"left_children":[1,3,5,7,9,11,13,-1,-1,15,17,-1,-1,-1,-1,19,21,23,25,-1,27,29,31,33,-1,35,37,-1,-1,-1,-1,-1,-1,-1,-1,-1,-1,-1,-1],"loss_changes":[4.8109844E7,2.521622E6,1.675688E6,3.9909E4,7.8758875E5,9.3061E4,1.18308E5,0E0,0E0,2.635615E5,1.366649E4,0E0,0E0,0E0,0E0,1.394425E4,4.20015E4,5.411991E3,4.5230977E3,0E0,5.7709375E2,2.0112375E4,1.9910469E4,4.78074E3,0E0,3.4848867E3,2.4373176E3,0E0,0E0,0E0,0E0,0E0,0E0,0E0,0E0,0E0,0E0,0E0,0E0],"parents":[2147483647,0,0,1,1,2,2,3,3,4,4,5,5,6,6,9,9,10,10,15,15,16,16,17,17,18,18,20,20,21,21,22,22,23,23,25,25,26,26],"right_children":[2,4,6,8,10,12,14,-1,-1,16,18,-1,-1,-1,-1,20,22,24,26,-1,28,30,32,34,-1,36,38,-1,-1,-1,-1,-1,-1,-1,-1,-1,-1,-1,-1],"split_conditions":[1.3007907E0,-8.016235E-1,2.069537E0,-8.7380606E-1,3.5398412E-2,1.6523547E0,-7.730389E-2,-9.696564E0,-8.040314E0,-4.1881382E-1,6.848513E-2,1.3800356E1,1.7336021E1,2.2350195E1,2.9132727E1,6.01882E-1,2.8503862E-1,-5.3282622E-2,-2.6679605E-1,-5.492911E0,-5.200096E-1,-1.9575381E-1,-2.695165E-1,5.9731405E-2,-1.2397897E0,3.38573E-1,4.5694736E-1,-4.799848E0,-3.5848083E0,-3.7617524E0,-1.9875202E0,-2.9426863E0,-1.7636718E0,7.5658906E-1,-5.460016E-1,8.7837803E-1,1.7545418E0,9.262309E-1,-5.045939E-1],"split_indices":[3,3,3,3,3,3,6,0,0,5,5,0,0,0,0,6,6,4,1,0,4,5,5,3,0,6,6,0,0,0,0,0,0,0,0,0,0,0,0],"split_type":[0,0,0,0,0,0,0,0,0,0,0,0,0,0,0,0,0,0,0,0,0,0,0,0,0,0,0,0,0,0,0,0,0,0,0,0,0,0,0],"sum_hessian":[1.316E3,1.056E3,2.6E2,2.63E2,7.93E2,1.5E2,1.1E2,1.44E2,1.19E2,6.93E2,1E2,7.9E1,7.1E1,8.7E1,2.3E1,2.44E2,4.49E2,3.5E1,6.5E1,1.94E2,5E1,2.57E2,1.92E2,2.9E1,6E0,5.5E1,1E1,2.4E1,2.6E1,2.36E2,2.1E1,1.35E2,5.7E1,1.9E1,1E1,2.3E1,3.2E1,5E0,5E0],"tree_param":{"num_deleted":"0","num_feature":"7","num_nodes":"39","size_leaf_vector":"1"}},{"base_weights":[5.720756E-1,-9.114616E1,3.6225122E2,-1.653021E2,-6.2170277E1,3.0839563E2,4.8514676E2,-1.807508E2,-7.0429535E0,-7.549878E1,-1.6895627E0,2.6794022E2,1.7957775E1,2.2012201E1,2.798734E1,-9.987822E0,-8.405345E0,-9.157134E1,-5.979883E1,-2.8004723E1,1.7410048E1,9.022269E0,1.3849872E1,-5.1319995E0,-8.2660576E1,-3.386074E0,-4.97959E1,-3.226159E1,-1.58404255E1,5.514862E0,2.6539307E1,-4.143308E0,-1.1825135E0,-2.8073893E0,-2.2466524E0,-2.1940236E0,-1.3629712E0,-3.605797E-1,-1.0579724E0,1.3341232E-1,1.3810364E0,1.4878739E0,3.9677888E-1],"categories":[],"categories_nodes":[],"categories_segments":[],"categories_sizes":[],"default_left":[0,0,0,0,0,0,0,0,0,0,0,0,0,0,0,0,0,0,0,0,0,0,0,0,0,0,0,0,0,0,0,0,0,0,0,0,0,0,0,0,0,0,0],"id":31,"left_children":[1,3,5,7,9,11,13,15,-1,17,19,21,-1,-1,-1,-1,-1,23,25,27,29,-1,-1,-1,31,-1,33,35,37,39,41,-1,-1,-1,-1,-1,-1,-1,-1,-1,-1,-1,-1],"loss_changes":[4.345591E7,2.235149E6,1.604316E6,8.51805E4,6.06879E5,2.87774E5,1.8206E4,8.713E3,0E0,1.5021675E5,6.934504E4,3.5603E4,0E0,0E0,0E0,0E0,0E0,2.140075E4,2.1591375E4,2.4923086E3,8.54118E3,0E0,0E0,0E0,1.39E2,0E0,1.894125E3,1.2448672E3,6.276553E2,2.19167E3,2.458004E3,0E0,0E0,0E0,0E0,0E0,0E0,0E0,0E0,0E0,0E0,0E0,0E0],"parents":[2147483647,0,0,1,1,2,2,3,3,4,4,5,5,6,6,7,7,9,9,10,10,11,11,17,17,18,18,19,19,20,20,24,24,26,26,27,27,28,28,29,29,30,30],"right_children":[2,4,6,8,10,12,14,16,-1,18,20,22,-1,-1,-1,-1,-1,24,26,28,30,-1,-1,-1,32,-1,34,36,38,40,42,-1,-1,-1,-1,-1,-1,-1,-1,-1,-1,-1,-1],"split_conditions":[1.2124236E0,-5.718788E-1,2.2978384E0,-8.411398E-1,-2.1364698E-1,1.7376562E0,2.5161688E0,-9.6061456E-1,-7.0429535E0,-3.8373372E-1,-3.5101555E-2,1.333366E0,1.7957775E1,2.2012201E1,2.798734E1,-9.987822E0,-8.405345E0,-5.0262034E-1,-3.179119E-1,-1.4568958E-1,8.243496E-2,9.022269E0,1.3849872E1,-5.1319995E0,1.3989009E0,-3.386074E0,5.218414E-1,3.38573E-1,-8.685307E-1,3.254958E-1,8.528839E-2,-4.143308E0,-1.1825135E0,-2.8073893E0,-2.2466524E0,-2.1940236E0,-1.3629712E0,-3.605797E-1,-1.0579724E0,1.3341232E-1,1.3810364E0,1.4878739E0,3.9677888E-1],"split_indices":[0,0,0,0,0,0,0,0,0,0,0,0,0,0,0,0,0,0,0,0,0,0,0,0,6,0,2,6,6,2,3,0,0,0,0,0,0,0,0,0,0,0,0],"split_type":[0,0,0,0,0,0,0,0,0,0,0,0,0,0,0,0,0,0,0,0,0,0,0,0,0,0,0,0,0,0,0,0,0,0,0,0,0,0,0,0,0,0,0],"sum_hessian":[1.308E3,1.044E3,2.64E2,2.92E2,7.52E2,1.86E2,7.8E1,1.75E2,1.17E2,6.16E2,1.36E2,1.07E2,7.9E1,5.3E1,2.5E1,6.4E1,1.11E2,3.02E2,3.14E2,5.7E1,7.9E1,1.2E1,9.5E1,1.3E2,1.72E2,1.72E2,1.42E2,4.1E1,1.6E1,3.5E1,4.4E1,1.71E2,1E0,5.7E1,8.5E1,1E1,3.1E1,7E0,9E0,3.2E1,3E0,3.7E1,7E0],"tree_param":{"num_deleted":"0","num_feature":"7","num_nodes":"43","size_leaf_vector":"1"}},{"base_weights":[-1.9287981E0,-8.610729E1,3.46185E2,-1.5005153E2,-5.5181118E1,2.9319098E2,4.6791522E2,-1.691401E2,-1.2276361E2,-6.747389E1,7.9441957E0,2.551717E2,1.71209E1,2.8114607E1,2.1432884E1,-9.431983E0,-7.8828783E0,-6.7162476E0,-5.2919397E0,-8.227846E1,-5.201554E1,-1.4820542E1,1.9650057E1,1.03675375E1,1.356561E1,-4.5217633E0,-7.252931E1,-5.917884E1,-4.1535778E1,-2.192948E1,-5.060804E0,1.5933444E1,3.96928E1,-2.61011E0,-3.7291093E0,-1.8098366E0,-3.0158904E0,-2.2436638E0,-1.6679648E0,-1.6143799E-1,-1.1301087E0,-4.6674109E-1,2.8776857E-1,3.4348893E-1,9.8388356E-1,2.1955738E0,6.199809E-1],"categories":[],"categories_nodes":[],"categories_segments":[],"categories_sizes":[],"default_left":[0,0,0,0,0,0,0,0,0,0,0,0,0,0,0,0,0,0,0,0,0,0,0,0,0,0,0,0,0,0,0,0,0,0,0,0,0,0,0,0,0,0,0,0,0,0,0],"id":32,"left_children":[1,3,5,7,9,11,13,15,17,19,21,23,-1,-1,-1,-1,-1,-1,-1,25,27,29,31,-1,-1,-1,33,35,37,39,41,43,45,-1,-1,-1,-1,-1,-1,-1,-1,-1,-1,-1,-1,-1,-1],"loss_changes":[4.0029348E7,2.1670265E6,1.57877E6,1.657135E5,5.7709325E5,2.64481E5,5.1664E4,1.6832E4,1.532975E4,1.380675E5,3.2801895E4,2.8647E4,0E0,0E0,0E0,0E0,0E0,0E0,0E0,1.856975E4,2.0588375E4,2.8030361E3,5.40134E3,0E0,0E0,0E0,2.32425E3,2.528375E3,1.9960469E3,2.2893945E2,9.320672E2,2.2403691E3,8.3720703E2,0E0,0E0,0E0,0E0,0E0,0E0,0E0,0E0,0E0,0E0,0E0,0E0,0E0,0E0],"parents":[2147483647,0,0,1,1,2,2,3,3,4,4,5,5,6,6,7,7,8,8,9,9,10,10,11,11,19,19,20,20,21,21,22,22,26,26,27,27,28,28,29,29,30,30,31,31,32,32],"right_children":[2,4,6,8,10,12,14,16,18,20,22,24,-1,-1,-1,-1,-1,-1,-1,26,28,30,32,-1,-1,-1,34,36,38,40,42,44,46,-1,-1,-1,-1,-1,-1,-1,-1,-1,-1,-1,-1,-1,-1],"split_conditions":[1.2124236E0,-5.472584E-1,2.2978384E0,-8.2141846E-1,-1.699297E-1,1.7376562E0,2.3619518E0,-9.5711523E-1,-5.8940315E-1,-3.6353436E-1,2.486712E-2,1.3818367E0,1.71209E1,2.8114607E1,2.1432884E1,-9.431983E0,-7.8828783E0,-6.7162476E0,-5.2919397E0,-4.336937E-1,-2.8795555E-1,-4.9193513E-2,1.5367705E-1,1.03675375E1,1.356561E1,-4.5217633E0,-4.4510224E-1,-4.7928107E-1,-2.1983705E-1,-5.6782836E-1,7.590701E-2,6.468968E-2,7.590701E-2,-2.61011E0,-3.7291093E0,-1.8098366E0,-3.0158904E0,-2.2436638E0,-1.6679648E0,-1.6143799E-1,-1.1301087E0,-4.6674109E-1,2.8776857E-1,3.4348893E-1,9.8388356E-1,2.1955738E0,6.199809E-1],"split_indices":[0,0,0,0,0,0,3,0,0,0,0,0,0,0,0,0,0,0,0,0,0,0,0,0,0,0,3,1,0,1,3,0,3,0,0,0,0,0,0,0,0,0,0,0,0,0,0],"split_type":[0,0,0,0,0,0,0,0,0,0,0,0,0,0,0,0,0,0,0,0,0,0,0,0,0,0,0,0,0,0,0,0,0,0,0,0,0,0,0,0,0,0,0,0,0,0,0],"sum_hessian":[1.364E3,1.099E3,2.65E2,3.57E2,7.42E2,1.87E2,7.8E1,2.07E2,1.5E2,6.21E2,1.21E2,1.09E2,7.8E1,1.9E1,5.9E1,7.1E1,1.36E2,8.5E1,6.5E1,3.15E2,3.06E2,4.1E1,8E1,3.1E1,7.8E1,1.67E2,1.48E2,1.79E2,1.27E2,2.3E1,1.8E1,6.9E1,1.1E1,1.6E1,1.32E2,1E1,1.69E2,8.7E1,4E1,1E0,2.2E1,1.3E1,5E0,2.1E1,4.8E1,9E0,2E0],"tree_param":{"num_deleted":"0","num_feature":"7","num_nodes":"47","size_leaf_vector":"1"}},{"base_weights":[1.1986588E0,-8.181115E1,3.3075552E2,-1.3666136E2,-4.909058E1,2.8047974E2,4.3943674E2,-1.5580913E2,-1.0543592E2,-6.065193E1,1.0108378E1,2.4345389E2,1.6127073E1,1.9778074E1,2.5374775E1,-8.740308E0,-7.2557154E0,-5.8842E0,-4.911439E0,-7.161946E1,-4.544871E1,-9.868484E0,1.8798054E1,7.8057656E0,1.2507765E1,-3.9890134E0,-3.238814E0,-5.1338062E1,-3.507835E1,-2.1740315E0,-1.5145899E1,1.51341715E1,3.9405506E1,-2.4380968E0,-2.9965649E0,-1.9575453E0,-1.4794401E0,-1.1475343E0,1.3939069E-1,-8.286621E-1,2.993408E-1,7.9252213E-1,-8.0349123E-1,5.743856E-1,2.2166526E0],"categories":[],"categories_nodes":[],"categories_segments":[],"categories_sizes":[],"default_left":[0,0,0,0,0,0,0,0,0,0,0,0,0,0,0,0,0,0,0,0,0,0,0,0,0,0,0,0,0,0,0,0,0,0,0,0,0,0,0,0,0,0,0,0,0],"id":33,"left_children":[1,3,5,7,9,11,13,15,17,19,21,23,-1,-1,-1,-1,-1,-1,-1,25,27,29,31,-1,-1,-1,-1,33,35,37,39,41,43,-1,-1,-1,-1,-1,-1,-1,-1,-1,-1,-1,-1],"loss_changes":[3.64385E7,1.902884E6,1.34111E6,2.20938E5,4.5780575E5,2.11146E5,4.71E4,2.42065E4,2.034125E3,8.99535E4,1.9280676E4,2.1232E4,0E0,0E0,0E0,0E0,0E0,0E0,0E0,1.287025E4,1.2673875E4,1.3477039E3,5.217379E3,0E0,0E0,0E0,0E0,3.7603125E2,8.312969E2,1.6103402E3,7.0249414E2,1.7521973E3,1.00394336E3,0E0,0E0,0E0,0E0,0E0,0E0,0E0,0E0,0E0,0E0,0E0,0E0],"parents":[2147483647,0,0,1,1,2,2,3,3,4,4,5,5,6,6,7,7,8,8,9,9,10,10,11,11,19,19,20,20,21,21,22,22,27,27,28,28,29,29,30,30,31,31,32,32],"right_children":[2,4,6,8,10,12,14,16,18,20,22,24,-1,-1,-1,-1,-1,-1,-1,26,28,30,32,-1,-1,-1,-1,34,36,38,40,42,44,-1,-1,-1,-1,-1,-1,-1,-1,-1,-1,-1,-1],"split_conditions":[1.2124236E0,-5.2775925E-1,2.2978384E0,-8.0330926E-1,-1.6146146E-1,1.721436E0,2.5161688E0,-9.422961E-1,-5.78034E-1,-3.4645382E-1,2.486712E-2,1.333366E0,1.6127073E1,1.9778074E1,2.5374775E1,-8.740308E0,-7.2557154E0,-5.8842E0,-4.911439E0,-4.0490592E-1,-2.555588E-1,-9.2452526E-2,1.5367705E-1,7.8057656E0,1.2507765E1,-3.9890134E0,-3.238814E0,-2.9594183E-1,-2.4404006E-1,-1.840869E-1,5.3999763E-2,1.3796564E0,-5.8176684E-1,-2.4380968E0,-2.9965649E0,-1.9575453E0,-1.4794401E0,-1.1475343E0,1.3939069E-1,-8.286621E-1,2.993408E-1,7.9252213E-1,-8.0349123E-1,5.743856E-1,2.2166526E0],"split_indices":[0,0,0,0,0,0,0,0,0,0,0,0,0,0,0,0,0,0,0,0,0,4,0,0,0,0,0,5,5,4,5,2,1,0,0,0,0,0,0,0,0,0,0,0,0],"split_type":[0,0,0,0,0,0,0,0,0,0,0,0,0,0,0,0,0,0,0,0,0,0,0,0,0,0,0,0,0,0,0,0,0,0,0,0,0,0,0,0,0,0,0,0,0],"sum_hessian":[1.33E3,1.063E3,2.67E2,3.96E2,6.67E2,1.85E2,8.2E1,2.43E2,1.53E2,5.58E2,1.09E2,1.02E2,8.3E1,5.4E1,2.8E1,8.2E1,1.61E2,5.1E1,1.02E2,3.22E2,2.36E2,3.3E1,7.6E1,9E0,9.3E1,1.42E2,1.8E2,1.48E2,8.8E1,1.4E1,1.9E1,6.6E1,1E1,1.19E2,2.9E1,4.7E1,4.1E1,2E0,1.2E1,1.8E1,1E0,6.5E1,1E0,2E0,8E0],"tree_param":{"num_deleted":"0","num_feature":"7","num_nodes":"45","size_leaf_vector":"1"}},{"base_weights":[1.914937E0,-7.746382E1,3.1383698E2,-1.386143E2,-5.1340115E1,2.667758E2,4.262597E2,-1.5281413E2,-1.1337209E2,-6.2946987E1,3.0383708E0,2.3155035E2,1.5631195E1,1.927021E1,2.4872862E1,-8.573529E0,-7.1386905E0,-6.0379577E0,-4.797418E0,-7.824896E1,-5.038525E1,-1.6128368E1,1.7820137E1,9.357422E0,1.2376339E1,-4.2693267E0,-3.4815507E0,-5.7262974E1,-4.0965763E1,-2.8142612E0,-2.3061731E1,7.346327E0,2.3227743E1,-5.5681765E-1,-2.8964586E0,-2.0903919E0,-9.0759194E-1,-5.269221E-1,3.368091E-1,-8.802417E-1,-1.8290284E0,1.7723443E-1,1.1682299E0,1.2419807E0,-5.578461E-2],"categories":[],"categories_nodes":[],"categories_segments":[],"categories_sizes":[],"default_left":[0,0,0,0,0,0,0,0,0,0,0,0,0,0,0,0,0,0,0,0,0,0,0,0,0,0,0,0,0,0,0,0,0,0,0,0,0,0,0,0,0,0,0,0,0],"id":34,"left_children":[1,3,5,7,9,11,13,15,17,19,21,23,-1,-1,-1,-1,-1,-1,-1,25,27,29,31,-1,-1,-1,-1,33,35,37,39,41,43,-1,-1,-1,-1,-1,-1,-1,-1,-1,-1,-1,-1],"loss_changes":[3.2955092E7,1.687807E6,1.314786E6,9.6299E4,4.704085E5,2.3931E5,3.5165E4,1.2982E4,3.601125E3,1.1408E5,3.7685414E4,3.3836E4,0E0,0E0,0E0,0E0,0E0,0E0,0E0,1.0970125E4,1.9681E4,5.289169E3,4.0772305E3,0E0,0E0,0E0,0E0,5.316375E3,2.0651094E3,1.6201451E3,2.1592988E3,1.5613634E3,1.9503965E3,0E0,0E0,0E0,0E0,0E0,0E0,0E0,0E0,0E0,0E0,0E0,0E0],"parents":[2147483647,0,0,1,1,2,2,3,3,4,4,5,5,6,6,7,7,8,8,9,9,10,10,11,11,19,19,20,20,21,21,22,22,27,27,28,28,29,29,30,30,31,31,32,32],"right_children":[2,4,6,8,10,12,14,16,18,20,22,24,-1,-1,-1,-1,-1,-1,-1,26,28,30,32,-1,-1,-1,-1,34,36,38,40,42,44,-1,-1,-1,-1,-1,-1,-1,-1,-1,-1,-1,-1],"split_conditions":[1.2124236E0,-5.575146E-1,2.2978384E0,-8.2141846E-1,-1.9658376E-1,1.7376562E0,2.5281649E0,-9.6061456E-1,-5.8940315E-1,-3.860981E-1,3.4157284E-2,1.3818367E0,1.5631195E1,1.927021E1,2.4872862E1,-8.573529E0,-7.1386905E0,-6.0379577E0,-4.797418E0,-4.7672707E-1,-3.085968E-1,-9.2452526E-2,8.243496E-2,9.357422E0,1.2376339E1,-4.2693267E0,-3.4815507E0,-5.1142174E-1,-1.496389E-1,-1.7899299E-1,-1.8290925E-1,3.254958E-1,1.3591881E0,-5.5681765E-1,-2.8964586E0,-2.0903919E0,-9.0759194E-1,-5.269221E-1,3.368091E-1,-8.802417E-1,-1.8290284E0,1.7723443E-1,1.1682299E0,1.2419807E0,-5.578461E-2],"split_indices":[0,0,0,0,0,0,0,0,0,0,0,0,0,0,0,0,0,0,0,0,0,4,0,0,0,0,0,1,5,4,1,2,2,0,0,0,0,0,0,0,0,0,0,0,0],"split_type":[0,0,0,0,0,0,0,0,0,0,0,0,0,0,0,0,0,0,0,0,0,0,0,0,0,0,0,0,0,0,0,0,0,0,0,0,0,0,0,0,0,0,0,0,0],"sum_hessian":[1.329E3,1.06E3,2.69E2,3.16E2,7.44E2,1.92E2,7.7E1,1.99E2,1.17E2,6.13E2,1.31E2,1.12E2,8E1,5.3E1,2.4E1,6.4E1,1.35E2,7.8E1,3.9E1,2.74E2,3.39E2,5.7E1,7.4E1,3.3E1,7.9E1,1.45E2,1.29E2,1.93E2,1.46E2,2E1,3.7E1,2.6E1,4.8E1,3E0,1.9E2,1.4E2,6E0,1.1E1,9E0,2.8E1,9E0,2.2E1,4E0,4.5E1,3E0],"tree_param":{"num_deleted":"0","num_feature":"7","num_nodes":"45","size_leaf_vector":"1"}},{"base_weights":[4.6343532E-1,-7.4705345E1,2.9750415E2,-1.2981671E2,-4.7585346E1,2.3224423E2,3.6757764E2,-1.4563812E2,-1.0671255E2,-5.858753E1,5.2362328E0,9.052009E0,1.2428168E1,1.7042805E1,2.296492E1,-8.150884E0,-6.820232E0,-5.903505E0,-4.7500815E0,-6.758257E1,-4.218798E1,-1.4948977E1,1.8181482E1,-3.8022335E0,-5.9503757E1,-4.7094707E1,-3.4451443E1,-2.158572E1,-5.8227153E0,1.527547E1,3.39647E1,-1.5602881E0,-2.9962099E0,-2.2223117E0,-2.8061311E0,-1.8674701E0,-1.4052544E0,-1.1467896E-1,-1.1107649E0,-6.352793E-1,1.8536438E-1,1.4141641E0,6.223794E-1,6.134796E-1,2.0283334E0],"categories":[],"categories_nodes":[],"categories_segments":[],"categories_sizes":[],"default_left":[0,0,0,0,0,0,0,0,0,0,0,0,0,0,0,0,0,0,0,0,0,0,0,0,0,0,0,0,0,0,0,0,0,0,0,0,0,0,0,0,0,0,0,0,0],"id":35,"left_children":[1,3,5,7,9,11,13,15,17,19,21,-1,-1,-1,-1,-1,-1,-1,-1,23,25,27,29,-1,31,33,35,37,39,41,43,-1,-1,-1,-1,-1,-1,-1,-1,-1,-1,-1,-1,-1,-1],"loss_changes":[2.9741046E7,1.582604E6,1.144766E6,1.123975E5,4.1524975E5,7.3656E4,1.57162E5,1.0661E4,8.20225E3,8.4329875E4,3.2673316E4,0E0,0E0,0E0,0E0,0E0,0E0,0E0,0E0,2.145325E4,6.42525E3,2.8421768E3,2.9670078E3,0E0,4.97625E2,5.4215625E2,5.3196094E2,2.891328E2,1.4901665E3,2.0757207E3,1.0777979E3,0E0,0E0,0E0,0E0,0E0,0E0,0E0,0E0,0E0,0E0,0E0,0E0,0E0,0E0],"parents":[2147483647,0,0,1,1,2,2,3,3,4,4,5,5,6,6,7,7,8,8,9,9,10,10,19,19,20,20,21,21,22,22,24,24,25,25,26,26,27,27,28,28,29,29,30,30],"right_children":[2,4,6,8,10,12,14,16,18,20,22,-1,-1,-1,-1,-1,-1,-1,-1,24,26,28,30,-1,32,34,36,38,40,42,44,-1,-1,-1,-1,-1,-1,-1,-1,-1,-1,-1,-1,-1,-1],"split_conditions":[1.2124236E0,-5.472584E-1,1.8186406E0,-8.2458895E-1,-1.8474911E-1,1.3897378E0,2.5161688E0,-9.6061456E-1,-8.0240995E-1,-3.4645382E-1,2.486712E-2,9.052009E0,1.2428168E1,1.7042805E1,2.296492E1,-8.150884E0,-6.820232E0,-5.903505E0,-4.7500815E0,-4.1612735E-1,-2.6562062E-1,4.0523443E-2,1.5367705E-1,-3.8022335E0,-5.358443E-1,-2.9594183E-1,8.9735794E-1,-5.6782836E-1,-8.216171E-1,-5.5234474E-1,5.2731985E-1,-1.5602881E0,-2.9962099E0,-2.2223117E0,-2.8061311E0,-1.8674701E0,-1.4052544E0,-1.1467896E-1,-1.1107649E0,-6.352793E-1,1.8536438E-1,1.4141641E0,6.223794E-1,6.134796E-1,2.0283334E0],"split_indices":[0,0,0,0,0,0,0,0,3,0,0,0,0,0,0,0,0,0,0,0,0,3,0,0,3,5,2,1,2,2,2,0,0,0,0,0,0,0,0,0,0,0,0,0,0],"split_type":[0,0,0,0,0,0,0,0,0,0,0,0,0,0,0,0,0,0,0,0,0,0,0,0,0,0,0,0,0,0,0,0,0,0,0,0,0,0,0,0,0,0,0,0,0],"sum_hessian":[1.33E3,1.062E3,2.68E2,3.49E2,7.13E2,1.41E2,1.27E2,2.04E2,1.45E2,5.9E2,1.23E2,3.7E1,1.04E2,1.02E2,2.5E1,6.5E1,1.39E2,6.9E1,7.6E1,3.79E2,2.11E2,4.8E1,7.5E1,1.81E2,1.98E2,1.26E2,8.5E1,2.7E1,2.1E1,6.5E1,1E1,4E0,1.94E2,1.02E2,2.4E1,5.5E1,3E1,1E0,2.6E1,1.2E1,9E0,1E1,5.5E1,3E0,7E0],"tree_param":{"num_deleted":"0","num_feature":"7","num_nodes":"45","size_leaf_vector":"1"}},{"base_weights":[-3.019642E0,-7.050121E1,2.7947305E2,-1.3150948E2,-4.908696E1,2.3503447E2,3.6411627E2,-7.1449366E0,-5.8732233E0,-5.846919E1,7.9661994E0,2.0083818E2,1.3163297E1,3.739012E2,1.1037613E1,-7.77811E1,-4.847326E1,1.4246126E1,-2.0523293E1,8.432429E0,1.0953754E1,2.2774708E1,1.7232702E1,-4.3069854E0,-7.0374626E1,-5.564325E1,-4.118604E1,8.261519E0,2.5058231E1,-1.4815943E1,-2.9821428E1,-3.5846882E0,-1.8571001E0,-2.5940154E0,-3.183947E0,-2.8963382E0,-1.7261904E0,-3.3222117E-2,5.8241576E-1,1.390817E0,-9.460755E-2,-1.1432459E0,5.341695E-2,-2.4291383E-1,-1.6586121E0],"categories":[],"categories_nodes":[],"categories_segments":[],"categories_sizes":[],"default_left":[0,0,0,0,0,0,0,0,0,0,0,0,0,0,0,0,0,0,0,0,0,0,0,0,0,0,0,0,0,0,0,0,0,0,0,0,0,0,0,0,0,0,0,0,0],"id":36,"left_children":[1,3,5,7,9,11,13,-1,-1,15,17,19,-1,21,-1,23,25,27,29,-1,-1,-1,-1,-1,31,33,35,37,39,41,43,-1,-1,-1,-1,-1,-1,-1,-1,-1,-1,-1,-1,-1,-1],"loss_changes":[2.5507E7,1.4045065E6,8.84868E5,2.8004E4,4.2922975E5,1.13176E5,3.9504E4,0E0,0E0,1.290415E5,2.0688336E4,1.11905E4,0E0,3.3921E4,0E0,8.3625E3,2.1533875E4,5.8753633E3,6.7258887E2,0E0,0E0,0E0,0E0,0E0,2.99225E3,3.5603125E3,2.3652219E4,1.8820254E3,2.5055918E3,1.9422097E3,4.2436768E2,0E0,0E0,0E0,0E0,0E0,0E0,0E0,0E0,0E0,0E0,0E0,0E0,0E0,0E0],"parents":[2147483647,0,0,1,1,2,2,3,3,4,4,5,5,6,6,9,9,10,10,11,11,13,13,15,15,16,16,17,17,18,18,24,24,25,25,26,26,27,27,28,28,29,29,30,30],"right_children":[2,4,6,8,10,12,14,-1,-1,16,18,20,-1,22,-1,24,26,28,30,-1,-1,-1,-1,-1,32,34,36,38,40,42,44,-1,-1,-1,-1,-1,-1,-1,-1,-1,-1,-1,-1,-1,-1],"split_conditions":[1.3007907E0,-5.650869E-1,2.3254087E0,-8.7380606E-1,-3.7774865E-2,1.6523547E0,2.1377957E0,-7.1449366E0,-5.8732233E0,-4.3376383E-1,-5.3282622E-2,-2.0141482E-1,1.3163297E1,2.3619518E0,1.1037613E1,-1.2681888E-1,-3.3961537E-1,3.444635E-1,-1.7029215E-1,8.432429E0,1.0953754E1,2.2774708E1,1.7232702E1,-4.3069854E0,8.2768965E-1,-4.1683012E-1,-5.0398505E-1,6.065888E-2,1.3591881E0,-2.6295316E-1,-2.0593233E0,-3.5846882E0,-1.8571001E0,-2.5940154E0,-3.183947E0,-2.8963382E0,-1.7261904E0,-3.3222117E-2,5.8241576E-1,1.390817E0,-9.460755E-2,-1.1432459E0,5.341695E-2,-2.4291383E-1,-1.6586121E0],"split_indices":[3,3,3,3,3,3,4,0,0,5,4,2,0,3,0,2,5,2,1,0,0,0,0,0,1,4,2,5,2,1,2,0,0,0,0,0,0,0,0,0,0,0,0,0,0],"split_type":[0,0,0,0,0,0,0,0,0,0,0,0,0,0,0,0,0,0,0,0,0,0,0,0,0,0,0,0,0,0,0,0,0,0,0,0,0,0,0,0,0,0,0,0,0],"sum_hessian":[1.336E3,1.079E3,2.57E2,2.79E2,8E2,1.71E2,8.6E1,1.49E2,1.3E2,6.87E2,1.13E2,8.1E1,9E1,7.9E1,7E0,2.32E2,4.55E2,9.3E1,2E1,3.3E1,4.8E1,1.7E1,6.2E1,1.04E2,1.28E2,2.26E2,2.29E2,6.1E1,3.2E1,1.4E1,6E0,1.22E2,6E0,1.59E2,6.7E1,6.3E1,1.66E2,1.7E1,4.4E1,2.9E1,3E0,9E0,5E0,1E0,5E0],"tree_param":{"num_deleted":"0","num_feature":"7","num_nodes":"45","size_leaf_vector":"1"}},{"base_weights":[1.0696017E0,-6.754605E1,2.714164E2,-1.2504414E2,-4.7235363E1,2.2318759E2,3.4847375E2,-6.9923754E0,-5.765484E0,-5.5914528E1,7.795602E0,9.912337E0,2.5044246E2,1.5200171E1,1.9387672E1,-7.412981E1,-4.5712727E1,1.3682191E1,-1.6962914E1,1.2787464E1,6.1967797E0,-7.852932E1,-6.1846783E1,-5.2825268E1,-3.855405E1,7.106658E0,2.5938814E1,-2.3493164E1,-1.2019706E1,-4.1094394E0,-3.192419E0,-3.1733818E0,-1.726002E0,-2.2227118E0,-2.7817304E0,-2.7926223E0,-1.6501669E0,4.014584E-1,-1.136911E0,1.4545356E0,-9.105988E-2,-2.3684083E-1,-1.2747978E0,-8.627581E-2,-9.7623295E-1],"categories":[],"categories_nodes":[],"categories_segments":[],"categories_sizes":[],"default_left":[0,0,0,0,0,0,0,0,0,0,0,0,0,0,0,0,0,0,0,0,0,0,0,0,0,0,0,0,0,0,0,0,0,0,0,0,0,0,0,0,0,0,0,0,0],"id":37,"left_children":[1,3,5,7,9,11,13,-1,-1,15,17,-1,19,-1,-1,21,23,25,27,-1,-1,29,31,33,35,37,39,41,43,-1,-1,-1,-1,-1,-1,-1,-1,-1,-1,-1,-1,-1,-1,-1,-1],"loss_changes":[2.446726E7,1.2226465E6,9.145E5,2.33585E4,3.7250412E5,6.387E4,5.8547E4,0E0,0E0,1.21674E5,1.5826611E4,0E0,1.9326E4,0E0,0E0,8.112625E3,2.0061E4,6.827324E3,3.9550732E2,0E0,0E0,4.04675E3,8.21E2,2.583E3,1.9280719E4,1.7794373E3,2.6778828E3,1.7975049E2,1.0479135E3,0E0,0E0,0E0,0E0,0E0,0E0,0E0,0E0,0E0,0E0,0E0,0E0,0E0,0E0,0E0,0E0],"parents":[2147483647,0,0,1,1,2,2,3,3,4,4,5,5,6,6,9,9,10,10,12,12,15,15,16,16,17,17,18,18,21,21,22,22,23,23,24,24,25,25,26,26,27,27,28,28],"right_children":[2,4,6,8,10,12,14,-1,-1,16,18,-1,20,-1,-1,22,24,26,28,-1,-1,30,32,34,36,38,40,42,44,-1,-1,-1,-1,-1,-1,-1,-1,-1,-1,-1,-1,-1,-1,-1,-1],"split_conditions":[1.3007907E0,-5.650869E-1,2.1827073E0,-9.2980087E-1,-3.7774865E-2,1.9019891E0,-7.384974E-1,-6.9923754E0,-5.765484E0,-4.3376383E-1,-5.3282622E-2,9.912337E0,-4.993549E-1,1.5200171E1,1.9387672E1,6.2471527E-1,-3.3961537E-1,3.444635E-1,-1.6041774E0,1.2787464E1,6.1967797E0,-4.9858037E-1,8.7779856E-1,-4.4808987E-1,-8.3924836E-1,1.269578E-1,1.3591881E0,-2.0593233E0,-1.3312154E0,-4.1094394E0,-3.192419E0,-3.1733818E0,-1.726002E0,-2.2227118E0,-2.7817304E0,-2.7926223E0,-1.6501669E0,4.014584E-1,-1.136911E0,1.4545356E0,-9.105988E-2,-2.3684083E-1,-1.2747978E0,-8.627581E-2,-9.7623295E-1],"split_indices":[3,3,3,5,3,4,2,0,0,5,4,0,1,0,0,2,5,2,2,0,0,5,1,4,2,5,2,2,2,0,0,0,0,0,0,0,0,0,0,0,0,0,0,0,0],"split_type":[0,0,0,0,0,0,0,0,0,0,0,0,0,0,0,0,0,0,0,0,0,0,0,0,0,0,0,0,0,0,0,0,0,0,0,0,0,0,0,0,0,0,0,0,0],"sum_hessian":[1.317E3,1.051E3,2.66E2,2.73E2,7.78E2,1.66E2,1E2,1.03E2,1.7E2,6.72E2,1.06E2,9.1E1,7.5E1,5.1E1,4.9E1,2.39E2,4.33E2,8.6E1,2E1,7.1E1,4E0,1.72E2,6.7E1,2.14E2,2.19E2,5.7E1,2.9E1,7E0,1.3E1,1.34E2,3.8E1,6.2E1,5E0,5.8E1,1.56E2,5.1E1,1.68E2,5.6E1,1E0,2.6E1,3E0,1E0,6E0,6E0,7E0],"tree_param":{"num_deleted":"0","num_feature":"7","num_nodes":"45","size_leaf_vector":"1"}},{"base_weights":[2.325842E0,-6.3537037E1,2.5724E2,-1.1953899E2,-4.4906555E1,2.0721378E2,3.243084E2,-6.7408023E0,-1.0933974E2,-5.2985302E1,7.461426E0,9.1930685E0,2.3000533E2,1.5259337E1,2.269029E1,-5.508637E0,-3.0241344E0,-6.930632E1,-4.367082E1,1.293196E1,-1.6078526E1,1.1740966E1,6.6550574E0,-3.6820543E0,-5.919249E1,-5.0566574E1,-3.4832775E1,4.1698E0,1.6885578E1,-9.959569E0,-2.4776886E1,-3.0244071E0,-1.6457754E0,-2.267619E0,-2.7669034E0,-1.9345449E0,-1.0341936E0,9.254735E-1,-2.8108183E-1,1.0655992E0,4.3228894E-1,-7.8319365E-1,1.28407795E-2,5.1315308E-2,-1.4304836E0],"categories":[],"categories_nodes":[],"categories_segments":[],"categories_sizes":[],"default_left":[0,0,0,0,0,0,0,0,0,0,0,0,0,0,0,0,0,0,0,0,0,0,0,0,0,0,0,0,0,0,0,0,0,0,0,0,0,0,0,0,0,0,0,0,0],"id":38,"left_children":[1,3,5,7,9,11,13,-1,15,17,19,-1,21,-1,-1,-1,-1,23,25,27,29,-1,-1,-1,31,33,35,37,39,41,43,-1,-1,-1,-1,-1,-1,-1,-1,-1,-1,-1,-1,-1,-1],"loss_changes":[2.2732374E7,1.1172695E6,8.65538E5,2.70175E4,3.4265725E5,4.3934E4,1.5122E5,0E0,9.225E1,1.03540625E5,1.4244523E4,0E0,5.1315E3,0E0,0E0,0E0,0E0,6.732875E3,2.5602938E4,3.012751E3,8.7095557E2,0E0,0E0,0E0,7.6671875E2,3.710125E3,1.0117391E4,4.175827E3,2.0405762E3,8.1990576E2,8.205469E2,0E0,0E0,0E0,0E0,0E0,0E0,0E0,0E0,0E0,0E0,0E0,0E0,0E0,0E0],"parents":[2147483647,0,0,1,1,2,2,3,3,4,4,5,5,6,6,8,8,9,9,10,10,12,12,17,17,18,18,19,19,20,20,24,24,25,25,26,26,27,27,28,28,29,29,30,30],"right_children":[2,4,6,8,10,12,14,-1,16,18,20,-1,22,-1,-1,-1,-1,24,26,28,30,-1,-1,-1,32,34,36,38,40,42,44,-1,-1,-1,-1,-1,-1,-1,-1,-1,-1,-1,-1,-1,-1],"split_conditions":[1.3007907E0,-5.7174224E-1,2.069537E0,-9.1511554E-1,-3.7774865E-2,1.6523547E0,1.6663073E0,-6.7408023E0,-5.650869E-1,-4.1881382E-1,-6.119398E-2,9.1930685E0,-5.1142174E-1,1.5259337E1,2.269029E1,-5.508637E0,-3.0241344E0,3.6822438E-1,2.8503862E-1,-1.7074318E-1,-3.4986883E-2,1.1740966E1,6.6550574E0,-3.6820543E0,8.7779856E-1,-1.5818766E-1,-2.5410292E-1,-2.0004338E-1,8.528839E-2,-2.6295316E-1,-2.1080358E0,-3.0244071E0,-1.6457754E0,-2.267619E0,-2.7669034E0,-1.9345449E0,-1.0341936E0,9.254735E-1,-2.8108183E-1,1.0655992E0,4.3228894E-1,-7.8319365E-1,1.28407795E-2,5.1315308E-2,-1.4304836E0],"split_indices":[3,5,3,4,3,3,6,0,3,5,4,0,1,0,0,0,0,6,6,4,4,0,0,0,1,1,5,4,3,1,6,0,0,0,0,0,0,0,0,0,0,0,0,0,0],"split_type":[0,0,0,0,0,0,0,0,0,0,0,0,0,0,0,0,0,0,0,0,0,0,0,0,0,0,0,0,0,0,0,0,0,0,0,0,0,0,0,0,0,0,0,0,0],"sum_hessian":[1.352E3,1.075E3,2.77E2,2.67E2,8.08E2,1.61E2,1.16E2,1.02E2,1.65E2,7E2,1.08E2,8.4E1,7.7E1,1.04E2,1.2E1,1.61E2,4E0,2.52E2,4.48E2,8.8E1,2E1,7.2E1,5E0,1.72E2,8E1,2.49E2,1.99E2,2.8E1,6E1,1.3E1,7E0,7.5E1,5E0,1.24E2,1.25E2,1.55E2,4.4E1,1.1E1,1.7E1,3.8E1,2.2E1,8E0,5E0,1E0,6E0],"tree_param":{"num_deleted":"0","num_feature":"7","num_nodes":"45","size_leaf_vector":"1"}},{"base_weights":[-1.3420607E0,-6.0954094E1,2.4350638E2,-1.13677284E2,-4.3238308E1,2.027139E2,3.138216E2,-1.26558556E2,-5.2055464E0,-5.1983013E1,1.2705656E0,9.029048E0,2.3040848E2,1.4458223E1,1.9288237E1,-6.4377527E0,-4.122943E0,-6.8363235E1,-4.341758E1,-2.0416645E1,1.0485649E1,1.1734672E1,6.3454103E0,-7.572262E1,-6.3053394E1,-4.9259167E1,-3.5843304E1,-1.4048799E1,-2.9090363E1,3.2883248E0,1.7314577E1,-1.0579224E0,-3.80469E0,-3.1875718E0,-1.5797827E0,-2.219006E0,-2.6673229E0,-2.0943167E0,-1.4317559E0,-2.3322347E-1,-9.095287E-1,-7.8862154E-1,-1.8848132E0,-5.1110023E-1,3.850213E-1,9.4550675E-1,-6.4610803E-1],"categories":[],"categories_nodes":[],"categories_segments":[],"categories_sizes":[],"default_left":[0,0,0,0,0,0,0,0,0,0,0,0,0,0,0,0,0,0,0,0,0,0,0,0,0,0,0,0,0,0,0,0,0,0,0,0,0,0,0,0,0,0,0,0,0,0,0],"id":39,"left_children":[1,3,5,7,9,11,13,15,-1,17,19,-1,21,-1,-1,-1,-1,23,25,27,29,-1,-1,31,33,35,37,39,41,43,45,-1,-1,-1,-1,-1,-1,-1,-1,-1,-1,-1,-1,-1,-1,-1,-1],"loss_changes":[1.9456598E7,9.963675E5,6.85018E5,1.9972E4,3.129965E5,6.13705E4,5.5198E4,3.825E1,0E0,9.1316E4,2.6794059E4,0E0,1.70375E3,0E0,0E0,0E0,0E0,4.174125E3,1.78795E4,1.8006328E3,4.563165E3,0E0,0E0,2.33E2,1.038E3,2.578125E3,7.38175E3,8.868447E2,1.2392432E3,2.880334E3,2.5600938E3,0E0,0E0,0E0,0E0,0E0,0E0,0E0,0E0,0E0,0E0,0E0,0E0,0E0,0E0,0E0,0E0],